tree
version=v4
num_class=9
num_tree_per_iteration=9
label_index=0
max_feature_idx=13
objective=multiclass num_class:9
feature_names=model car_type fuel_type car_rating year_to_start riders year_to_work mean_rating distance_sum rating_min speed_max user_ride_quality_median deviation_normal_count user_uniq
feature_infos=-1:14:16:19:15:5:23:7:17:9:24:8:22:20:18:6:2:10:11:4:1:13:0:12:3:21 -1:1:3:0:2 -1:1:0 [1.24:8.9000000000000004] [2011:2017] [23:139872] [2014:2022] [3.5298850574712648:5.7007471264367817] [1478866.3194710591:31197854.66144909] [0:1.5] [92:209.98283950882248] [-36.993448865668789:35.77049335204191] none [136:174]
tree_sizes=2260 874 659 2659 3261 3259 3245 1352 2363 3372 3462 3457 3364 3321 3304 3309 3424 3388 3373 3463 3445 3314 3329 3305 3313 3428 3387 3384 3451 3450 3359 3330 3310 3316 3427 3385 3373 3449 3450 3366 3320 3310 3307 3408 3374 3392 3458 3444 3359 3345 3311 3320 3408 3387 3387 3460 3452 3367 3322 3318 3344 3405 3384 3385 3460 3445 3387 3326 3319 3351 3407 3383 3380 3463 3438 3371 3321 3325 3335 3414 3376 3399 3470 3460 3358 3334 3320 3337 3420 3407 3399 3470 3456 3373 3340 3354 3347 3445 3393 3382 3475 3455 3391 3333 3364 3327 3422 3400 3387 3472 3460 3399 3355 3363 3325 3441 3420 3417 3478 3473 3360 3368 3353 3336 3446 3412 3406 3490 3479 3380 3376 3346 3362 3460 3401 3423 3491 3487 3379 3372 3352 3356 3463 3415 3413 3512 3490 3423 3348 3353 3340 3458 3388 3420 3504 3494 3391 3353 3359 3336 3466 3390 3440 3494 3491 3406 3351 3355 3353 3474 3399 3383 3507 3497 3423 3337 3321 3359 3484 3392 3442 3504 3510 3392 3364 3330 3347 3475 3394 3408 3511 3512 3371 3367 3365 3344 3483 3365 3447 3509 3502 3400 3378 3368 3368 3479 3387 3434 3509 3511 3407 3364 3371 3377 3468 3407 3415 3508 3503 3386 3374 3364 3368 3479 3389

Tree=0
num_leaves=21
num_cat=0
split_feature=7 10 10 10 7 13 3 7 10 3 11 10 9 7 10 8 7 3 3 3
split_gain=261.001 859.972 37.8549 19.6047 14.2432 14.0103 13.6407 12.2049 57.9314 6.98572 6.13247 3.01431 1.60236 0.375672 1.29422 0.362649 0.351599 1.42109e-14 7.10543e-15 3.55271e-15
threshold=4.5649712643678173 171.355343730649 164.62323961112153 175.00168614739729 4.6914655172413804 171.50000000000003 4.3900000000000015 4.4831321839080465 183.97475494786747 4.1500000000000012 -5.0953141239194855 165.00187963228265 0.37500000000000006 4.4263218390804608 182.52566169945223 8943201.1863353867 4.5798275862068971 5.6100000000000003 5.2900000000000009 4.0300000000000002
decision_type=2 2 2 2 2 2 2 2 2 2 2 2 2 2 2 2 2 2 2 2
left_child=7 2 16 -3 5 -5 -4 12 11 -7 -6 15 13 17 -15 -9 -2 -1 -18 -17
right_child=1 3 6 4 10 9 -8 8 -10 -11 -12 -13 -14 14 -16 19 18 -19 -20 -21
leaf_value=-2.2358051658436362 -2.1987380537086407 -1.770781395422784 -2.1079236289779018 -1.4148372748537363 -1.541140027313721 -1.809533376291188 -1.7669061973359432 -2.1931779868883914 -1.7168655959536991 -1.5800024126860235 -1.3832615867387394 -2.1079236289779018 -2.1505508079331466 -2.2358051658436362 -2.1505508079331466 -2.2358051658436362 -2.2358051658436362 -2.2358051658436362 -2.2358051658436362 -2.2358051658436362
leaf_weight=95.478988736867905 2.6978092640638343 2.5805132091045406 2.3459210991859427 3.1669934839010256 3.1669934839010265 2.3459210991859436 2.3459210991859436 2.3459210991859498 2.6978092640638343 3.0496974289417267 11.02582916617393 2.3459210991859427 2.3459210991859427 7.3896514624357206 2.3459210991859436 4.8091382533311835 41.17091529071331 8.4453159570693952 8.5626120120286924 8.5626120120286924
leaf_count=814 23 22 20 27 27 20 20 20 23 26 94 20 20 63 20 41 351 72 73 73
internal_value=-2.135 -1.99447 -2.20955 -1.50956 -1.47994 -1.5818 -1.93741 -2.21972 -2.14911 -1.6798 -1.41849 -2.21366 -2.23236 -2.23405 -2.21526 -2.22944 -2.2339 -2.23581 -2.23581 -2.23581
internal_weight=0 82.4591 57.1232 25.3359 22.7554 8.56261 4.69184 136.767 20.7614 5.39562 14.1928 18.0636 116.006 113.66 9.73557 15.7177 52.4313 103.924 49.7335 13.3718
internal_count=1869 703 487 216 194 73 40 1166 177 46 121 154 989 969 83 134 447 886 424 114
is_linear=0
shrinkage=1


Tree=1
num_leaves=7
num_cat=1
split_feature=7 7 7 3 2 3
split_gain=1626.64 3.39202 0.412176 2.27374e-13 2.84217e-14 2.84217e-14
threshold=4.9934482758620691 5.2010344827586215 4.8999712643678164 5.3900000000000015 0 4.870000000000001
decision_type=2 2 2 2 1 2
left_child=2 -2 4 -3 5 -1
right_child=1 3 -4 -5 -6 -7
leaf_value=-2.2675654746555338 -1.5161026055117617 -1.3908587939877988 -2.2258175374808795 -1.3908587939877988 -2.2675654746555338 -2.2675654746555338
leaf_weight=128.43520051240921 2.3953278958797481 19.732939332723621 2.3953278958797446 2.5093911290168753 3.535960227251052 54.1800357401371
leaf_count=1126 21 173 21 22 31 475
internal_value=-2.16718 -1.40304 -2.26704 -1.39086 -2.26757 -2.26757
internal_weight=0 24.6377 188.547 22.2423 186.151 182.615
internal_count=1869 216 1653 195 1632 1601
cat_boundaries=0 1
cat_threshold=2
is_linear=0
shrinkage=1


Tree=2
num_leaves=5
num_cat=0
split_feature=9 3 3 3
split_gain=1661.33 2.27374e-13 2.84217e-14 8.88178e-16
threshold=1.0000000180025095e-35 3.8300000000000005 6.2700000000000005 6.6800000000000006
decision_type=2 2 2 2
left_child=1 -1 -2 -4
right_child=2 -3 3 -5
leaf_value=-1.4058345701928521 -2.3443132831392877 -1.4058345701928516 -2.3443132831392877 -2.3443132831392877
leaf_weight=6.7129917517304447 172.30012162774801 14.38498232513666 3.0901073142886153 2.6638856157660484
leaf_count=63 1617 135 29 25
internal_value=-2.24489 -1.40583 -2.34431 -2.34431
internal_weight=0 21.098 178.054 5.75399
internal_count=1869 198 1671 54
is_linear=0
shrinkage=1


Tree=3
num_leaves=25
num_cat=0
split_feature=10 10 7 10 5 3 10 10 10 3 3 7 7 10 11 6 7 7 11 7 3 3 3 3
split_gain=152.878 442.856 330.483 103.616 26.5552 16.9868 13.7806 13.4044 8.1775 6.29962 7.31113 5.92144 4.01741 11.1643 7.68532 4.00496 3.32331 2.27937 2.2103 0.355226 1.42109e-14 1.42109e-14 7.10543e-15 1.77636e-15
threshold=175.58886538327675 141.40949968669747 4.3185057471264381 168.2703532187592 79984.500000000015 4.4700000000000015 162.0508794564345 149.1163206635172 163.07686364669024 4.7500000000000009 3.8900000000000001 4.7160632183908051 4.5414080459770121 185.3695100109569 -2.1779609803351483 2020.5000000000002 4.6658045977011504 4.600718390804599 0.09737595619841781 4.2566666666666677 6.1500000000000012 6.0500000000000007 4.870000000000001 3.9300000000000002
decision_type=2 2 2 2 2 2 2 2 2 2 2 2 2 2 2 2 2 2 2 2 2 2 2 2
left_child=1 20 8 6 5 -5 7 -4 -3 10 -8 15 21 14 -14 17 -16 18 -9 23 22 -2 -1 -10
right_child=12 2 3 4 -6 -7 9 11 19 -11 -12 -13 13 -15 16 -17 -18 -19 -20 -21 -22 -23 -24 -25
leaf_value=-2.2358051658436362 -2.2358051658436362 -2.0700328032399065 -1.7486374063551251 -1.6545254528175701 -2.20422947772864 -2.0134024930336634 -1.6268454664829957 -1.4148372748537363 -2.2358051658436362 -1.5537703025597192 -1.8651340444936813 -1.6319201306443345 -1.9374149131569225 -2.2358051658436362 -2.0734159126807987 -1.5727157154287166 -2.2358051658436362 -1.3832615867387399 -1.5253521832562225 -2.1931779868883914 -2.2358051658436362 -2.2358051658436362 -2.2358051658436362 -2.2358051658436362
leaf_weight=45.276277214288712 75.186771228909492 4.2226579785347012 2.463217154145247 2.5805132091045362 3.1669934839010239 2.6978092640638351 2.4632171541452399 3.1669934839010256 3.6361777037382117 2.3459210991859436 2.6978092640638351 2.8151053190231314 2.3459210991859436 15.834967419505118 2.4632171541452434 3.166993483901023 2.580513209104538 3.8707698136568069 4.2226579785346985 2.3459210991859427 2.3459210991859427 3.0496974289417258 16.186855584383011 8.0934277921915037
leaf_count=386 641 36 21 22 27 23 21 27 31 20 23 24 20 135 21 27 22 33 36 20 20 26 138 69
internal_value=-2.135 -2.05748 -1.8466 -1.66931 -1.97531 -1.83795 -1.57435 -1.53043 -2.19208 -1.68964 -1.75141 -1.49925 -2.22496 -2.18844 -2.08695 -1.47337 -2.1565 -1.44543 -1.47799 -2.2287 -2.23581 -2.23581 -2.23581 -2.23581
internal_weight=0 117.765 53.9562 35.658 8.44532 5.27832 27.2127 19.7057 18.2982 7.50695 5.16103 17.2425 101.461 23.2246 7.38965 14.4274 5.04373 11.2604 7.38965 14.0755 63.8091 78.2365 61.4631 11.7296
internal_count=1869 1004 460 304 72 45 232 168 156 64 44 147 865 198 63 123 43 96 63 120 544 667 524 100
is_linear=0
shrinkage=1


Tree=4
num_leaves=31
num_cat=0
split_feature=7 10 9 7 10 10 7 10 13 10 8 4 11 13 13 11 6 3 10 5 11 10 10 7 13 10 5 11 7 7
split_gain=215.172 448.582 106.429 28.9208 22.9386 16.3097 16.0062 12.0534 20.785 11.0234 11.0216 10.3136 9.01339 10.595 6.04494 4.91483 4.18693 3.37536 2.10702 1.97225 1.7248 1.13107 2.75573 0.767071 1.65442 2.43175 0.403305 0.352004 0.312359 0.333778
threshold=4.2809195402298856 179.18997556507929 1.0000000180025095e-35 4.2072126436781616 183.78945757592996 176.93963298593641 4.4473563218390817 155.01867274723674 171.50000000000003 177.35097425827982 10999397.868145579 2014.5000000000002 -3.1620067567401198 171.50000000000003 171.50000000000003 -5.6713062189519041 2018.5000000000002 4.6700000000000008 168.2703532187592 44022.000000000007 -1.2200375268261299 187.90672397637562 186.3031829256966 4.559224137931035 170.50000000000003 158.0066649849791 105653.00000000001 -7.8356070210266138 3.877298850574713 4.2108908045977023
decision_type=2 2 2 2 2 2 2 2 2 2 2 2 2 2 2 2 2 2 2 2 2 2 2 2 2 2 2 2 2 2
left_child=1 2 -1 5 10 12 7 -2 11 20 -3 -9 -4 18 15 -6 -15 -12 -14 -17 -10 22 -16 24 25 -8 -26 -11 -23 -30
right_child=6 4 3 -5 14 -7 23 8 9 27 17 -13 13 16 21 19 -18 -19 -20 -21 -22 28 -24 -25 26 -27 -28 -29 29 -31
leaf_value=-2.3148185930856875 -2.3148185930856875 -1.9034471034058384 -1.4006597271304682 -1.8707985724788663 -2.1083956233538634 -1.798120103632737 -2.3148185930856875 -2.1390188111712223 -2.0536303456699105 -2.2691106497879265 -2.1038588547883292 -1.8577391601080777 -1.5377835570237504 -1.7746338086576032 -2.3148185930856875 -2.1776947631924046 -1.5834915003215118 -2.2444986803199014 -1.4006597271304679 -2.2930529058010394 -2.1776947631924046 -2.2712872185163913 -2.1929307442916581 -2.3148185930856875 -2.3148185930856875 -2.1887277150228988 -2.2691106497879265 -2.3148185930856875 -2.3148185930856875 -2.2767286403375535
leaf_weight=2.5159740671515491 10.063896268606188 2.1878035366535169 4.2662168964743641 3.8286561891436568 3.3910954818129539 2.5159740671515456 2.9535347744822529 2.8441445976495769 2.2971937134861946 2.1878035366535205 4.2662168964743614 2.4065838903188705 2.1878035366535169 2.4065838903188705 4.2662168964743641 2.1878035366535169 2.1878035366535187 2.8441445976495743 2.2971937134861946 4.5943874269723892 2.1878035366535178 2.2971937134861973 3.281705304980278 77.667025551199913 16.408526524901394 3.1723151281476021 2.1878035366535178 7.329141847789284 18.596330061554912 2.6253642439842215
leaf_count=23 92 20 39 35 31 23 27 26 21 20 39 22 20 22 39 20 20 26 21 42 20 21 30 710 150 29 20 67 170 24
internal_value=-2.21504 -2.077 -1.70238 -1.62412 -2.24161 -1.56458 -2.29128 -2.22613 -2.17977 -2.2434 -2.09972 -2.0101 -1.52055 -1.57688 -2.2736 -2.20669 -1.68361 -2.16011 -1.46755 -2.25584 -2.11415 -2.29551 -2.26182 -2.30994 -2.29459 -2.24952 -2.30944 -2.30431 -2.30631 -2.31011
internal_weight=0 72.7445 22.2062 19.6902 50.5383 15.8616 131.706 29.3166 19.2527 14.0019 9.29817 5.25073 13.3456 9.07938 41.2401 10.1733 4.59439 7.11036 4.485 6.78219 4.485 31.0668 7.54792 102.389 24.7222 6.12585 18.5963 9.51695 23.5189 21.2217
internal_count=1869 665 203 180 462 145 1204 268 176 128 85 48 122 83 377 93 42 65 41 62 41 284 69 936 226 56 170 87 215 194
is_linear=0
shrinkage=1


Tree=5
num_leaves=31
num_cat=0
split_feature=7 10 9 13 13 5 10 10 10 8 10 11 10 10 8 5 13 4 7 10 3 10 11 6 3 3 7 10 3 7
split_gain=221.847 95.2234 126.477 92.8962 18.2212 10.3803 21.8312 10.2431 10.8764 9.89351 8.73816 14.4761 8.59533 8.15251 6.15377 6.10852 8.11486 6.03498 5.98004 8.42729 5.96217 7.84462 5.76846 5.27158 2.52103 2.45987 1.26122 2.57372 0.320509 0.307233
threshold=4.3569827586206911 177.77976177764489 1.0000000180025095e-35 173.50000000000003 171.50000000000003 57540.500000000007 194.87503518416796 188.71907537523956 186.09675839795025 14021354.066105714 185.75382119351391 -6.712375466758826 165.27294420321206 187.90672397637562 9478881.7636179328 81607.500000000015 171.50000000000003 2014.5000000000002 4.4126436781609204 179.18997556507929 5.0300000000000002 191.93311868328865 -0.64471668158736117 2017.5000000000002 4.2700000000000005 5.0100000000000007 4.4696264367816108 177.77976177764489 5.0300000000000002 4.2046839080459781
decision_type=2 2 2 2 2 2 2 2 2 2 2 2 2 2 2 2 2 2 2 2 2 2 2 2 2 2 2 2 2 2
left_child=1 12 -3 4 10 20 7 8 -7 -9 22 -12 -1 -5 -14 25 -17 -13 19 -2 21 23 -4 -6 -15 29 27 28 -20 -16
right_child=18 2 3 13 5 6 -8 9 -10 -11 11 17 14 24 15 16 -18 -19 26 -21 -22 -23 -24 -25 -26 -27 -28 -29 -30 -31
leaf_value=-2.2815017180969157 -2.2637504618191642 -2.2815017180969162 -2.2815017180969157 -1.4925569946412853 -1.9264765925418825 -1.8017380349144378 -2.1171382340436598 -1.8588527591028283 -2.070177238599872 -1.5788478237692452 -1.7933421704587444 -2.1615607973012962 -2.0152328739306409 -1.7743229673040108 -2.2815017180969162 -2.239236822197507 -1.9856474468010545 -1.9742684363665983 -2.2815017180969162 -2.0596110146250197 -2.1230083584741331 -1.837720311153124 -2.0766795302767043 -2.1335745824489853 -1.638783818385217 -2.1483672960137783 -2.2795315453690854 -2.1483672960137783 -2.2371235774025369 -2.2371235774025369
leaf_weight=11.379476293921472 5.6334041059017164 12.168152868747709 2.5913658887147903 3.042038217186926 2.253361642360689 4.1687190383672696 3.0420382171869269 2.3660297244787216 2.3660297244787216 2.7040339708328247 2.2533616423606864 4.1687190383672705 2.2533616423606899 2.3660297244787216 5.0700636953115445 2.3660297244787207 2.7040339708328247 2.9293701350688934 5.8587402701377851 3.1547062993049622 3.1547062993049613 3.1547062993049622 2.9293701350688925 2.7040339708328247 3.2673743814229965 2.2533616423606873 101.51394198834896 2.2533616423606864 2.2533616423606873 2.2533616423606873
leaf_count=101 50 108 23 27 20 37 27 21 21 24 20 37 20 21 45 21 24 26 52 28 28 28 26 24 29 20 901 20 20 20
internal_value=-2.1813 -2.06239 -1.99268 -1.92162 -1.98483 -1.93419 -1.87868 -1.81618 -1.89893 -1.70952 -2.07306 -2.01416 -2.21432 -1.62447 -2.16908 -2.19275 -2.10399 -2.08427 -2.2699 -2.19047 -2.00636 -1.96099 -2.17282 -2.03944 -1.69571 -2.23973 -2.27614 -2.24291 -2.26917 -2.26785
internal_weight=0 89.9091 61.6294 49.4613 40.7858 25.9137 14.6469 11.6048 6.53475 5.07006 14.8722 9.35145 28.2797 8.67544 16.9002 14.6469 5.07006 7.09809 120.668 8.78811 11.2668 8.1121 5.52074 4.9574 5.6334 9.57679 111.879 10.3655 8.1121 7.32343
internal_count=1869 798 547 439 362 230 130 103 58 45 132 83 251 77 150 130 45 63 1071 78 100 72 49 44 50 85 993 92 72 65
is_linear=0
shrinkage=1


Tree=6
num_leaves=31
num_cat=0
split_feature=7 10 9 13 5 6 10 7 10 9 10 7 6 6 7 11 3 5 4 8 3 10 10 8 7 10 8 8 3 5
split_gain=263.008 159.059 155.094 28.3616 22.8511 15.8149 14.6835 13.6859 22.9059 23.3001 13.3975 7.66922 7.30762 7.05463 5.47667 12.3104 5.30158 5.19083 4.56252 4.49553 4.2129 3.7226 3.47856 0.906167 0.806566 2.89213 0.374787 0.93202 0.288753 1.42109e-14
threshold=4.3063505747126447 176.5670327244305 1.0000000180025095e-35 173.50000000000003 81607.500000000015 2020.5000000000002 181.38998516501098 4.4620689655172425 170.6250867418232 1.0000000180025095e-35 187.90672397637562 4.3916379310344835 2018.5000000000002 2019.5000000000002 3.9948850574712647 -6.61900328029623 4.2500000000000009 88776.000000000015 2012.5000000000002 13272780.572135769 5.1100000000000003 182.77029885621118 186.55631460197401 16414357.79654512 4.5293390804597706 169.61679864076447 14489596.491298281 15623339.025006959 4.910000000000001 78202.000000000015
decision_type=2 2 2 2 2 2 2 2 2 2 2 2 2 2 2 2 2 2 2 2 2 2 2 2 2 2 2 2 2 2
left_child=1 26 -3 4 5 10 -6 8 -2 -10 12 22 18 17 -12 -16 -5 -8 -4 -17 -18 -20 -11 -21 25 -9 -1 -28 -29 -26
right_child=7 2 3 16 6 -7 13 24 9 11 14 -13 -14 -15 15 19 20 -19 21 23 -22 -23 -24 -25 29 -27 27 28 -30 -31
leaf_value=-2.1504093767754129 -2.1504093767754129 -2.1504093767754129 -1.6827654330011859 -1.8155873815287762 -2.042491543596745 -1.8509616955228927 -1.8407321163496699 -2.1504093767754129 -2.1504093767754129 -2.0373525991596653 -1.6798487348071669 -1.7683554386256457 -1.6133896831006127 -1.9242958215439181 -1.7358678588510053 -1.5964311664582511 -2.0412511087326224 -1.6714056610876411 -1.7547106551202969 -1.477721549961716 -1.8734202716168318 -1.9242958215439181 -1.8734202716168318 -1.3949845445247373 -2.1504093767754129 -2.05448241394993 -2.0712696324443898 -2.1504093767754129 -2.1108395046099013 -2.1504093767754129
leaf_weight=11.625006139278414 16.679356634616855 12.635876238346098 2.7798927724361473 3.2853278219699842 2.7798927724361411 4.6752742081880561 2.9062515348196012 12.762235000729563 4.9279917329549781 2.6535340100526792 4.6752742081880561 3.664404109120369 3.538045346736908 2.653534010052681 2.6535340100526774 2.5271752476692217 3.664404109120369 4.8016329705715179 2.52717524766922 2.52717524766922 2.52717524766922 2.653534010052681 2.52717524766922 2.779892772436142 63.179381191730499 4.1698391586542121 2.5271752476692191 6.8233731687068921 2.52717524766922 35.506812229752541
leaf_count=92 132 100 22 26 22 37 23 101 39 21 37 29 28 21 21 20 29 38 20 20 20 21 20 22 500 33 20 54 20 281
internal_value=-2.04836 -1.91399 -1.83505 -1.7612 -1.72773 -1.68131 -1.83842 -2.13124 -2.0716 -1.97616 -1.65157 -1.87907 -1.73297 -1.78366 -1.58984 -1.54971 -1.91827 -1.73525 -1.78612 -1.48666 -1.97275 -1.84157 -1.95739 -1.43438 -2.14695 -2.12679 -2.13764 -2.12515 -2.13971 -2.15041
internal_weight=0 90.0938 66.5911 53.9552 44.4783 31.337 13.1413 146.071 30.4525 13.7731 26.6617 8.84511 11.4986 10.3614 15.1631 10.4878 9.47691 7.70788 7.9606 7.83424 6.19158 5.18071 5.18071 5.30707 115.618 16.9321 23.5027 11.8777 9.35055 98.6862
internal_count=1869 713 527 427 352 248 104 1156 241 109 211 70 91 82 120 83 75 61 63 62 49 41 41 42 915 134 186 94 74 781
is_linear=0
shrinkage=1


Tree=7
num_leaves=12
num_cat=0
split_feature=10 7 10 7 7 13 10 10 3 3 3
split_gain=661.966 689.007 51.2644 45.9678 14.327 13.6367 10.795 1.52772 2.27374e-13 3.55271e-15 8.88178e-16
threshold=117.99437476732167 4.7866091954023 127.52972130595852 4.5112068965517249 4.7745402298850577 171.50000000000003 114.84926537189948 132.44371923344659 5.3500000000000005 3.4100000000000006 4.5700000000000012
decision_type=2 2 2 2 2 2 2 2 2 2 2
left_child=1 6 3 -2 5 -5 8 -4 -1 -3 -6
right_child=2 9 7 4 10 -7 -8 -9 -10 -11 -12
leaf_value=-1.3691017648529611 -1.6406241254179892 -2.1836688465480441 -2.1060910292437502 -2.125485483569824 -2.1836688465480441 -1.8527509696094167 -1.5727435352767316 -2.1836688465480441 -1.3691017648529606 -2.1836688465480441 -2.1836688465480441
leaf_weight=19.028512202203281 2.946350276470187 3.4374086558818844 2.5780564919114104 3.4374086558818799 4.0512316301465034 3.9284670352935791 2.9463502764701834 165.24114467203617 3.3146440610289565 16.082161925733089 2.4552918970584869
leaf_count=155 24 28 21 28 33 32 24 1346 27 131 20
internal_value=-2.08212 -1.73733 -2.1658 -1.99935 -2.07554 -1.98003 -1.39283 -2.18248 -1.3691 -2.18367 -2.18367
internal_weight=0 44.8091 184.638 16.8187 13.8724 7.36588 25.2895 167.819 22.3432 19.5196 6.50652
internal_count=1869 365 1504 137 113 60 206 1367 182 159 53
is_linear=0
shrinkage=1


Tree=8
num_leaves=22
num_cat=0
split_feature=10 10 7 10 7 7 13 10 10 10 7 5 3 8 7 10 3 5 3 3 3
split_gain=172.741 362.292 208.378 146.283 44.0657 21.8892 18.7741 19.06 12.6871 8.53878 14.8229 5.54605 1.51247 0.866376 1.57327 2.52551 0.664073 7.10543e-15 3.55271e-15 8.88178e-16 4.44089e-16
threshold=153.00477821679024 117.99437476732167 4.8999712643678164 145.26075814852067 4.5112068965517249 4.5938218390804604 171.50000000000003 122.74366420933008 115.84830748190036 170.6250867418232 4.7355172413793118 117181.50000000001 4.6300000000000008 12443796.681435732 4.4126436781609204 160.59664918247105 2.7100000000000004 82347.500000000015 5.7700000000000005 5.3100000000000014 4.5300000000000002
decision_type=2 2 2 2 2 2 2 2 2 2 2 2 2 2 2 2 2 2 2 2 2
left_child=1 8 3 4 -3 -5 12 -8 16 10 11 13 -6 19 -15 -16 -1 -11 -18 -2 -4
right_child=9 2 20 5 6 -7 7 -9 -10 17 -12 -13 -14 14 15 -17 18 -19 -20 -21 -22
leaf_value=-2.7214998350739545 -2.7921914947707056 -2.1268582270365819 -2.7921914947707056 -2.7416974521301691 -1.5197416202291938 -2.2266582171967002 -2.0263651813892398 -1.5733697758612109 -2.5498200900961319 -2.7921914947707056 -2.4729388380757023 -2.5902153242085606 -1.3783583008356917 -2.7921914947707056 -2.7921914947707056 -2.643366948040704 -2.7921914947707056 -2.7921914947707056 -2.7921914947707056 -2.7921914947707056 -2.7921914947707056
leaf_weight=1.4145940542221129 6.1534841358661749 2.4048098921775836 2.5462692975997916 1.980431675910949 1.4145940542221072 1.4145940542221067 1.6975128650665285 2.0511613786220551 2.4755395948886862 49.227873086929321 2.1926207840442649 1.9804316759109486 1.6267831623554228 3.9608633518218976 1.9804316759109495 2.6877287030220032 20.228694975376133 20.157965272665024 1.6975128650665272 1.4145940542221067 1.4853237569332121
leaf_count=20 87 34 36 28 20 20 24 29 35 696 31 28 23 56 28 38 286 285 24 20 21
internal_value=-2.69688 -2.53063 -2.1665 -1.96613 -1.75901 -2.5271 -1.62872 -1.7785 -2.76508 -2.77548 -2.71855 -2.74818 -1.44412 -2.7675 -2.74584 -2.7065 -2.78791 -2.79219 -2.79219 -2.79219 -2.79219
internal_weight=0 42.4378 16.6215 12.5899 9.19486 3.39503 6.79005 3.74867 25.8163 89.756 20.3702 18.1775 3.04138 16.1971 8.62902 4.66816 23.3408 69.3858 21.9262 7.56808 4.03159
internal_count=1869 600 235 178 130 48 96 53 365 1269 288 257 43 229 122 66 330 981 310 107 57
is_linear=0
shrinkage=1


Tree=9
num_leaves=31
num_cat=0
split_feature=7 10 10 3 3 7 10 8 10 11 5 7 7 8 7 10 7 7 9 10 9 7 10 10 8 7 10 10 11 13
split_gain=197.895 426.508 12.6395 7.17502 8.51278 4.34102 17.9292 7.02024 3.84181 2.35093 2.08673 4.61266 0.861868 0.797304 1.07916 0.771644 1.02248 0.0359374 0.000323817 0.000132281 8.00927e-05 5.06966e-05 0.000109268 3.71312e-05 2.07723e-05 2.00695e-05 6.72232e-05 5.42633e-05 3.97873e-05 2.75217e-05
threshold=4.5314080459770123 166.5456498020055 179.86889353479995 3.9700000000000002 4.7700000000000005 4.410201149425288 177.77976177764489 12142620.40851287 164.10082789715446 -8.9408213517154262 78493.000000000015 4.6222988505747127 4.6982758620689671 10904548.541585168 4.7355172413793118 158.98018317317067 4.6254885057471276 4.8134770114942542 1.0000000180025095e-35 164.62323961112153 0.19500000000000003 4.2985919540229895 160.0857470461371 154.32017935768928 9227799.044116471 4.2185632183908064 176.93963298593641 179.64264416890325 -2.6496522790254162 171.50000000000003
decision_type=2 2 2 2 2 2 2 2 2 2 2 2 2 2 2 2 2 2 2 2 2 2 2 2 2 2 2 2 2 2
left_child=5 8 3 -3 -5 18 19 -8 15 -4 11 -11 -12 -13 -15 -2 -17 -16 -1 20 24 23 -23 -20 -7 27 -27 28 -25 -30
right_child=1 2 9 4 -6 6 7 -9 -10 10 12 13 -14 14 17 16 -18 -19 21 -21 -22 22 -24 25 -26 26 -28 -29 29 -31
leaf_value=-0.098799637167990159 -0.099012614002154511 0.11718095454581677 0.28292925518604617 0.38758942373945066 0.19161283543910723 -0.099429029094034449 0.21339181144097791 -0.0049522523259044014 0.045058570014431559 0.24137093938061557 0.44410782516746405 0.40173922355842528 0.3782835517680202 0.32098447766095339 0.37170988608058636 -0.0051236849949321209 -0.0992752861693946 0.38488428840022865 -0.098842381850523922 -0.099972332507808237 -0.09976788843612143 -0.099173378217441127 -0.099723732847655955 -0.098873216468525066 -0.099089300839809505 -0.09986336386105725 -0.09922201710178058 -0.099322181433294923 -0.099042024590811656 -0.099368073162044407
leaf_weight=15.42748513817787 46.953871630132198 3.569816216826438 4.04737265408039 4.2355064824223501 4.64970862865448 2.1293630823493102 2.8408474624156943 3.0572812929749489 2.0307635590434066 3.4154673814773622 3.5979811847209913 5.0353179275989559 4.4485432207584381 5.5174544155597678 4.2985571622848493 2.121937006711959 2.5272191390395164 3.9947482794523239 2.0343705043196669 2.8634419813752165 2.400395840406417 6.6865342035889608 7.8342258781194687 5.2054723501205435 11.628132760524748 2.4203183948993674 5.0324041768908501 36.026031814515591 4.9655598998069745 5.4088929668068886
leaf_count=152 455 24 22 27 28 20 22 24 16 20 20 26 22 29 21 20 24 20 20 26 22 64 72 51 112 22 48 341 48 51
internal_value=0 0.102655 0.323226 0.236924 0.285033 -0.0890946 -0.0521126 0.100214 -0.0898554 0.354513 0.364072 0.348297 0.407717 0.367675 0.355256 -0.0951647 -0.0563032 0.378056 -0.0992172 -0.0993459 -0.0992349 -0.0993024 -0.0994703 -0.0992624 -0.0991419 -0.0992769 -0.0994303 -0.0992547 -0.0990988 -0.099212
internal_weight=0 100.444 46.8105 12.455 8.88522 115.961 24.9195 5.89813 53.6338 34.3554 30.3081 22.2615 8.04652 18.8461 13.8108 51.603 4.64916 8.29331 91.0413 19.0213 16.1579 75.6138 14.5208 61.0931 13.7575 59.0587 7.45272 51.606 15.5799 10.3745
internal_count=1869 774 259 79 55 1095 226 46 515 180 158 116 42 96 70 499 44 41 869 180 154 717 136 581 132 561 70 491 150 99
is_linear=0
shrinkage=0.1


Tree=10
num_leaves=31
num_cat=0
split_feature=7 10 7 7 10 10 9 3 10 7 7 7 10 10 10 11 7 7 10 13 13 13 10 10 8 6 6 10 7 3
split_gain=767.551 1.3559 0.438808 0.326845 0.00177484 0.00414577 0.000440695 0.000263528 0.000247813 7.62749e-05 5.12699e-05 7.12249e-05 8.47556e-05 5.0817e-05 3.652e-05 3.6506e-05 2.8843e-05 3.0918e-05 5.38611e-05 2.53157e-05 2.51861e-05 1.76199e-05 3.04318e-05 2.23003e-05 2.98898e-05 1.64277e-05 1.63847e-05 1.53862e-05 7.35575e-05 1.47423e-05
threshold=4.9934482758620691 123.40254303033596 4.8999712643678164 5.2112356321839091 115.84830748190036 119.04983012325317 1.0000000180025095e-35 3.2300000000000009 145.26075814852067 4.4906609195402307 4.6658045977011504 4.2185632183908064 162.0508794564345 179.64264416890325 174.5999169702354 -2.6496522790254162 4.5690517241379318 4.2985919540229895 181.38998516501098 171.50000000000003 171.50000000000003 173.50000000000003 189.03259551388194 188.71907537523956 15278586.718629679 2019.5000000000002 2019.5000000000002 121.58149960854065 4.5229310344827596 4.4900000000000011
decision_type=2 2 2 2 2 2 2 2 2 2 2 2 2 2 2 2 2 2 2 2 2 2 2 2 2 2 2 2 2 2
left_child=2 3 6 -2 7 -6 9 -5 27 -1 11 13 26 15 -12 -10 17 18 -14 -18 -17 23 -23 -15 25 -25 -13 -8 -29 -21
right_child=1 -3 -4 4 5 -7 8 -9 10 -11 14 12 16 21 -16 20 19 -19 -20 29 -22 22 -24 24 -26 -27 -28 28 -30 -31
leaf_value=-0.098442704191680164 0.40448766980268236 0.32139726134248126 -0.053910483173751911 0.3759411768555474 0.37924923747392802 0.37506041134061679 -0.098667939681347072 0.37506041134061685 -0.098524236438581547 -0.097871119906739537 -0.098956427297928917 -0.098763168818305797 -0.099392564342665288 -0.099090940047214637 -0.098678665372881502 -0.098690198870402368 -0.098780645126893052 -0.099296753632132001 -0.098816273118810152 -0.099323172935599446 -0.099003203972810275 -0.09848178308229949 -0.098961164858385409 -0.098954653844680593 -0.098765124029348714 -0.099259438181206638 -0.099001105165629488 -0.099006084573730946 -0.098297345646200504 -0.098972307903102616
leaf_weight=16.556364700198177 4.4360288679599753 4.5765006840229026 2.2054916620254508 4.0621038675308254 4.0375294387340528 5.6961575746536255 26.605542860925198 20.750288307666779 5.158417545258998 2.7179033532738677 8.1162041351199168 7.9910877868533117 2.656330540776259 12.662422448396685 11.357399448752401 5.0289953574538213 3.2406697347760183 15.289210669696329 4.1640983149409294 2.3252664655447006 5.2591150775551796 1.9770225584506977 4.0105309411883354 6.5753171145916003 7.3835133835673323 2.4190634489059448 4.5374516621232033 2.060716599225997 5.0603790432214737 2.4691582173109055
leaf_count=168 23 23 21 20 20 28 265 102 52 29 79 79 25 122 113 50 32 145 41 22 51 20 39 64 73 23 44 20 52 24
internal_value=0 0.37289 -0.0982215 0.378935 0.375654 0.376798 -0.0988116 0.375205 -0.0988708 -0.0983621 -0.098942 -0.0989728 -0.0990679 -0.0988924 -0.0987944 -0.0987413 -0.0991588 -0.0992178 -0.0990407 -0.0989965 -0.0988502 -0.0989591 -0.0988029 -0.0989913 -0.0989142 -0.0990366 -0.0988493 -0.098633 -0.0985024 -0.0991425
internal_weight=0 43.5586 167.828 38.9821 34.5461 9.73369 165.622 24.8124 146.348 19.2743 112.621 93.1477 42.6733 50.4744 19.4736 15.4465 30.1447 22.1096 6.82043 8.03509 10.2881 35.0279 5.98755 29.0403 16.3779 8.99438 12.5285 33.7266 7.1211 4.79442
internal_count=1869 216 1653 193 170 48 1632 122 1435 197 1098 906 412 494 192 153 289 211 66 78 101 341 59 282 160 87 123 337 72 46
is_linear=0
shrinkage=0.1


Tree=11
num_leaves=31
num_cat=0
split_feature=9 7 7 10 5 13 5 10 7 7 10 10 10 11 7 7 10 13 13 13 10 10 8 11 6 6 3 13 10 5
split_gain=749.415 0.249315 0.0421026 0.0174719 0.00268521 0.00130824 0.000310553 0.000264343 5.29961e-05 5.51772e-05 6.56522e-05 3.93779e-05 3.76813e-05 2.82999e-05 2.23363e-05 2.39398e-05 4.17149e-05 1.96118e-05 1.95176e-05 1.36521e-05 2.35884e-05 1.72753e-05 2.31597e-05 1.28481e-05 1.27228e-05 1.26964e-05 1.14159e-05 1.04701e-05 1.13283e-05 1.61791e-05
threshold=1.0000000180025095e-35 4.4906609195402307 4.3300574712643689 184.02328907352901 79011.500000000015 172.50000000000003 69686.000000000015 145.26075814852067 4.6658045977011504 4.2185632183908064 162.0508794564345 179.64264416890325 174.5999169702354 -2.6496522790254162 4.5690517241379318 4.2985919540229895 181.38998516501098 171.50000000000003 171.50000000000003 173.50000000000003 189.03259551388194 188.71907537523956 15278586.718629679 -6.9135657476389589 2019.5000000000002 2019.5000000000002 4.4900000000000011 171.50000000000003 185.56680652698338 58657.500000000007
decision_type=2 2 2 2 2 2 2 2 2 2 2 2 2 2 2 2 2 2 2 2 2 2 2 2 2 2 2 2 2 2
left_child=1 2 3 4 -1 -5 -7 -2 9 11 25 13 -10 -9 15 16 -12 -16 -15 21 -21 27 24 -14 -23 -11 -19 -13 29 -29
right_child=7 -3 -4 5 -6 6 -8 8 12 10 14 19 23 18 17 -17 -18 26 -20 20 -22 22 -24 -25 -26 -27 -28 28 -30 -31
leaf_value=0.38721837508527124 -0.097840697613639532 0.40965690346501699 0.39359108742577031 0.38447003869184754 0.39085418679170858 0.38316196464764629 0.38207933098242508 -0.097741517990893784 -0.098139914652166399 -0.097959252210049405 -0.098532403318150288 -0.098388963271939578 -0.098079723162757551 -0.097892767012246085 -0.097975176958853674 -0.098445193621583826 -0.098007634314127831 -0.098469240926857007 -0.098177908640219247 -0.097702820858079881 -0.098139617860410297 -0.098133689446037703 -0.097961032791732114 -0.097812793251318614 -0.098411220131433941 -0.098175995607699962 -0.098149768583469216 -0.098278485686026956 -0.098337751972290277 -0.097906728423172704
leaf_weight=4.1783093512058276 51.496520183980465 5.7339469939470282 7.670516535639762 6.7986988872289684 3.9531649202108383 6.2136486917734128 4.619240403175354 4.815588265657424 7.9664974212646511 7.4614683687686902 2.4815657585859361 4.0184819325804728 2.1965490654110917 4.6954098865389806 3.0259338021278372 14.282178252935408 3.8882876709103584 2.1721588149666786 4.9115322157740593 1.8455646857619274 3.7453391775488853 6.1404988244175893 6.8941729292273513 10.069401696324345 2.2596610486507416 4.2375573441386223 2.3059090971946716 2.3325485661625862 3.1251548379659653 2.3502136841416359
leaf_count=21 551 30 39 34 20 31 23 52 83 79 25 41 23 50 32 145 41 22 51 20 39 64 73 108 23 44 24 24 32 25
internal_value=0 0.390392 0.387088 0.385151 0.388986 0.383383 0.3827 -0.0980269 -0.0981164 -0.0981503 -0.0982369 -0.098077 -0.0979706 -0.0979394 -0.0983196 -0.0983733 -0.0982121 -0.0981718 -0.0980385 -0.0981377 -0.0979954 -0.098167 -0.0980969 -0.0978606 -0.0982083 -0.0980378 -0.0983047 -0.0982578 -0.0981903 -0.0980919
internal_weight=0 39.1675 33.4336 25.7631 8.13147 17.6316 10.8329 158.718 107.222 86.9892 39.8551 47.1342 20.2324 14.4225 28.156 20.652 6.36985 7.504 9.60694 32.7116 5.5909 27.1207 15.2943 12.266 8.40016 11.699 4.47807 11.8264 7.80792 4.68276
internal_count=1869 198 168 129 41 88 54 1671 1120 906 412 494 214 153 289 211 66 78 101 341 59 282 160 131 87 123 46 122 81 49
is_linear=0
shrinkage=0.1


Tree=12
num_leaves=31
num_cat=0
split_feature=10 10 7 10 5 7 10 3 7 8 11 11 8 7 10 13 8 7 10 9 7 7 7 7 13 10 8 10 10 11
split_gain=121.682 272.332 144.302 30.299 16.3926 6.24363 5.48234 4.31022 7.67615 8.23421 4.96458 5.51393 8.0441 4.21957 10.4043 7.14254 2.7164 1.81597 0.363107 0.000384235 0.00021212 0.000142118 2.57803e-05 2.38733e-05 2.37317e-05 3.89426e-05 2.57446e-05 2.13551e-05 3.08595e-05 1.87652e-05
threshold=175.58886538327675 141.40949968669747 4.3098275862068975 168.2703532187592 79984.500000000015 4.5938218390804604 163.07686364669024 3.4700000000000002 4.7355172413793118 16339779.859252477 -6.8097401282396914 0.81984049258907399 10683756.37059819 4.5414080459770121 185.3695100109569 171.50000000000003 11057577.416766977 4.6039080459770121 173.82114965727962 1.0000000180025095e-35 4.2239942528735641 4.3145402298850586 4.680890804597702 4.3569827586206911 173.50000000000003 187.90672397637562 14843761.825922793 187.90672397637562 179.64264416890325 -2.6496522790254162
decision_type=2 2 2 2 2 2 2 2 2 2 2 2 2 2 2 2 2 2 2 2 2 2 2 2 2 2 2 2 2 2
left_child=1 -1 6 7 5 -5 -3 17 9 10 -9 12 -12 19 15 -15 -13 -4 20 23 29 24 -16 -2 26 -26 -21 28 -28 -8
right_child=13 2 3 4 -6 -7 18 8 -10 -11 11 16 -14 14 22 -17 -18 -19 -20 21 -22 -23 -24 -25 25 -27 27 -29 -30 -31
leaf_value=-0.098990006699316957 -0.098854410281471392 0.040480528871207726 0.3399832946614687 0.10042409935209649 -0.067931770189681523 0.29580143362081618 -0.098834423232845983 0.44086821599677839 0.17960299603183238 0.20392297194491338 0.36285605522218933 0.30882989056417587 0.16602107556597204 -0.04822661170736306 -0.099319096712129712 0.14818481788577781 0.40707941995638974 0.43419492354156353 -0.054830787919068917 -0.099391013883598361 -0.10014762341783237 -0.099758125848970036 -0.099029363284797278 -0.098553386185590369 -0.098852878377336917 -0.09930479444281072 -0.099066473899337704 -0.099134603299231613 -0.099532842296631743 -0.09915728697484022
leaf_weight=56.048414029181004 11.929755464196203 4.231330685317519 4.6393987983465177 2.9125964492559415 3.1134733930230141 3.7307357117533684 2.7485481426119804 4.3405050486326209 4.506855070590972 5.0774558112025252 3.9989460557699292 4.735325559973715 4.3181733787059784 3.8058778196573284 4.536260098218917 3.6054659634828568 6.9357532262802124 3.6600551456212997 2.2406093999743453 22.832469969987869 2.2386452481150627 7.5303324759006491 9.5081325471401197 3.3812998384237281 3.0565737634897214 5.0691846907138824 2.1753043904900577 9.8940359652042371 4.0799880400300026 5.2172319665551168
leaf_count=544 117 35 25 20 28 25 27 24 27 29 22 25 24 33 43 30 38 20 21 215 20 69 92 34 30 48 21 95 38 50
internal_value=0 0.0645602 0.198097 0.280228 0.121407 0.210143 -0.0578508 0.316937 0.301129 0.319755 0.343929 0.322879 0.260661 -0.0873311 -0.0485367 0.0473235 0.367216 0.381531 -0.0912836 -0.0992307 -0.0992876 -0.0993547 -0.0991229 -0.0987879 -0.0992903 -0.0991348 -0.0993227 -0.099226 -0.0993707 -0.0990459
internal_weight=0 124.694 68.6456 51.9693 9.75681 6.64333 16.6764 42.2125 33.913 29.4062 24.3287 19.9882 8.31712 91.4047 21.4557 7.41134 11.6711 8.29945 12.445 69.9489 10.2044 54.6379 14.0444 15.3111 47.1076 8.12576 38.9818 16.1493 6.25529 7.96578
internal_count=1869 1004 460 307 73 45 153 234 189 162 133 109 46 865 198 63 63 45 118 667 97 516 135 151 447 78 369 154 59 77
is_linear=0
shrinkage=0.1


Tree=13
num_leaves=31
num_cat=0
split_feature=7 10 10 13 10 13 7 13 10 13 11 7 5 8 10 11 10 5 10 10 3 13 10 6 11 13 7 11 5 3
split_gain=160.392 196.13 40.4955 17.2828 19.0376 14.5259 7.46855 7.56591 6.94105 6.21953 5.95755 5.0447 4.56498 4.12546 3.62135 3.1245 2.74372 2.23491 1.98407 5.92332 1.8245 1.69125 1.03338 1.5834 1.72925 0.749525 1.11604 0.567664 0.48776 0.196072
threshold=4.3300574712643689 179.86889353479995 149.1163206635172 171.50000000000003 185.3695100109569 173.50000000000003 4.477241379310346 170.50000000000003 162.0508794564345 171.50000000000003 -5.6713062189519041 4.2520977011494256 86252.500000000015 13514082.459412498 183.32296829690884 0.39560135075230951 171.5618867953618 88162.500000000015 155.01867274723674 176.93963298593641 4.3900000000000015 170.50000000000003 193.67903543331826 2020.5000000000002 -8.9408213517154262 168.50000000000003 4.6383045977011506 2.0072114204385141 131579.50000000003 5.0100000000000007
decision_type=2 2 2 2 2 2 2 2 2 2 2 2 2 2 2 2 2 2 2 2 2 2 2 2 2 2 2 2 2 2
left_child=1 2 -1 4 13 9 7 8 -2 17 -6 12 16 -3 15 -5 -11 21 -9 20 -20 -4 23 24 -16 26 -8 -12 -27 -26
right_child=6 3 5 14 10 -7 25 18 -10 11 27 -13 -14 -15 22 -17 -18 -19 19 -21 -22 -23 -24 -25 29 28 -28 -29 -30 -31
leaf_value=-0.070733115977153704 -0.054366763196860381 0.13521653372790898 0.37474980918661105 -0.063206462370396649 0.087248707691232566 0.11059786398439571 0.0001935981395556161 -0.098233172309259598 0.1813294449039739 0.40341125158947694 -0.04148080773748241 0.15228521014346952 0.2092441277059216 0.31867638063031056 -0.010722963272007717 0.090382015156067697 0.29259571216553093 0.42354782784144551 0.11594185845582237 -0.098762204083063743 -0.010809643045468061 0.29901960186246196 -0.098437246296368672 0.0070113595672124497 -0.098624399885166927 -0.098255165002086947 -0.098158410554939374 -0.099389839034356886 -0.048008381858537119 -0.071151985858642436
leaf_weight=3.2338748127222052 2.2402998507022884 2.5253224372863761 6.569785453379156 2.6901174038648596 3.7238121628761283 3.6797046512365332 2.0191536843776694 8.0336591303348559 2.8250038921833038 3.8890536129474622 3.4108593836426726 2.7480747252702704 3.7925965040922156 2.3817444145679474 3.4108234867453566 2.6092538312077522 5.2510254457592964 4.488230735063552 2.3073181733489019 5.8275060653686523 2.2363303229212761 5.3507292792201042 13.088942058384417 2.8347699269652358 9.1809934228658729 79.330635756254196 2.6919430494308472 3.3606087565422058 1.9801456555724133 3.6231171414256087
leaf_count=28 22 20 37 24 32 26 20 83 23 23 31 22 26 20 34 22 34 26 20 58 20 30 133 28 92 819 28 32 20 36
internal_value=0 0.0980566 0.268148 -0.0274928 0.0616707 0.298786 -0.0811426 -0.0311421 0.0770849 0.320365 -0.0143491 0.27533 0.301476 0.224262 -0.0641755 0.012416 0.339747 0.363403 -0.060928 -0.0320308 0.0535563 0.340757 -0.0768047 -0.0619411 -0.0739957 -0.0947847 -0.0560052 -0.0702205 -0.0970315 -0.0908507
internal_weight=0 91.8434 39.0031 52.8404 15.4023 35.7692 109.492 23.4701 5.0653 32.0895 10.4953 15.6808 12.9327 4.90707 37.438 5.29937 9.14008 16.4087 18.4048 10.3712 4.54365 11.9205 32.1386 19.0497 16.2149 86.0219 4.7111 6.77147 81.3108 12.8041
internal_count=1869 756 252 504 135 224 1113 226 45 198 95 105 83 40 369 46 57 93 181 98 40 67 323 190 162 887 48 63 839 128
is_linear=0
shrinkage=0.1


Tree=14
num_leaves=31
num_cat=0
split_feature=7 9 10 13 10 13 4 5 7 13 5 10 7 13 7 3 7 11 8 7 8 13 4 11 5 7 10 4 3 8
split_gain=172.005 59.5948 72.6485 29.4794 10.0595 8.85968 6.4571 6.45679 8.3246 6.2845 6.83463 6.1767 6.0205 15.3127 5.28744 4.6897 4.50738 4.35767 5.9639 3.95517 3.48442 4.97821 3.86632 2.24989 2.05249 1.80465 1.51811 0.40218 0.273978 0.117615
threshold=4.3569827586206911 1.0000000180025095e-35 177.77976177764489 173.50000000000003 165.27294420321206 171.50000000000003 2014.5000000000002 101923.00000000001 4.2809195402298856 171.50000000000003 46955.500000000007 189.51537517672361 4.4696264367816108 173.50000000000003 4.0825862068965524 4.1300000000000008 3.9200574712643683 9.1566892942660889 19420672.449919265 4.1693678160919552 14392660.310024222 172.50000000000003 2014.5000000000002 -1.0000000180025095e-35 60759.500000000007 4.1058908045977018 184.02328907352901 2015.5000000000002 2.4100000000000006 18672444.670514759
decision_type=2 2 2 2 2 2 2 2 2 2 2 2 2 2 2 2 2 2 2 2 2 2 2 2 2 2 2 2 2 2
left_child=1 -1 4 5 -3 6 14 8 16 25 -11 -8 13 26 -4 -12 -7 18 20 -16 21 -18 -23 24 -5 -6 27 -2 -14 -30
right_child=12 2 3 23 9 7 11 -9 -10 10 15 -13 28 -15 19 -17 17 -19 -20 -21 -22 22 -24 -25 -26 -27 -28 -29 29 -31
leaf_value=-0.09863260845031474 -0.098981427926089008 -0.098628808902746848 -0.052272005032027113 0.33755615338140355 -0.099058620925591145 0.24600053275573397 0.065613403078500929 0.3104320124545501 0.31204564797243745 -0.057260429771514368 0.24626908112144227 0.24998453673811505 -0.067967865957480847 0.17879551859999721 0.19514311184866012 0.06898703124140694 0.035012082733456899 0.24031614686298455 0.2403716405225525 0.015613218778489668 0.015528687664754912 0.24492068655246332 0.084311346752443242 0.36803155850868352 0.23681582962549769 0.013271355827349505 -0.015464776243029769 -0.050212676442944006 -0.098595830347454005 -0.085647177117029086
leaf_weight=13.461522936820982 9.638535290956499 9.6969572007656115 4.0653417631983775 3.7991360723972303 3.0922203436493865 3.7039790377020934 3.592068910598754 3.3721128255128852 3.3511905223131171 2.3315670490264875 2.5857988893985748 3.6771892905235291 3.2723971381783477 2.8686534166336051 2.3621174693107605 3.5280721336603165 4.3455824032425934 2.9032020345330229 2.8889820203185073 2.5539011731743813 5.0353258922696105 3.4466897025704384 2.6521817520260811 5.2275989204645148 4.3245793133974075 2.6609684973955154 3.5138375833630553 2.0507603660225859 78.898727968335152 7.6992797777056685
leaf_count=135 94 97 34 22 30 26 30 24 23 21 21 27 33 26 20 30 33 21 20 21 38 26 19 30 25 25 30 20 791 77
internal_value=0 0.0968922 0.127786 0.18544 -0.0201171 0.148847 0.088812 0.179624 0.164052 0.0335026 0.0884131 0.158878 -0.0857809 -0.0331151 0.0321023 0.143967 0.144195 0.126468 0.108475 0.101876 0.0838587 0.116801 0.175077 0.316858 0.283928 -0.0471037 -0.0731001 -0.0904255 -0.0963713 -0.0974446
internal_weight=0 98.6583 85.1968 61.3012 23.8956 47.9499 16.2506 31.6992 28.3271 14.1986 8.44544 7.26926 107.942 18.0718 8.98136 6.11387 24.9759 21.272 18.3688 4.91602 15.4798 10.4445 6.09887 13.3513 8.12372 5.75319 15.2031 11.6893 89.8704 86.598
internal_count=1869 798 663 439 224 362 132 230 206 127 72 57 1071 170 75 51 183 157 136 41 116 78 45 77 47 55 144 114 901 868
is_linear=0
shrinkage=0.1


Tree=15
num_leaves=31
num_cat=0
split_feature=10 7 9 13 10 6 10 11 5 11 10 4 8 3 11 3 11 6 11 10 7 10 7 7 8 10 3 11 7 7
split_gain=200.785 106.783 106.916 16.8589 21.543 9.31188 5.77502 11.6438 7.53583 5.74597 4.87052 6.6535 6.80969 5.94478 6.78022 4.22087 4.15375 3.74872 3.10474 2.64957 2.37881 2.26249 1.77819 4.73517 1.03748 0.413479 1.21529 0.365424 0.328161 0.00027283
threshold=176.19294521164031 4.4620689655172425 1.0000000180025095e-35 173.50000000000003 179.86889353479995 2020.5000000000002 186.9592659571276 -0.64471668158736117 44768.500000000007 -0.77812478110272065 188.58143974783073 2014.5000000000002 18554480.314988554 4.370000000000001 1.5218468001702778 4.5300000000000002 1.0000000180025095e-35 2018.5000000000002 0.42558463987528378 173.36650295840914 4.5314080459770123 192.04076016255527 4.4620689655172425 4.1638218390804598 15257847.376329111 167.04494111894078 5.1300000000000008 9.5992802621706499 4.1058908045977018 4.3757471264367824
decision_type=2 2 2 2 2 2 2 2 2 2 2 2 2 2 2 2 2 2 2 2 2 2 2 2 2 2 2 2 2 2
left_child=19 2 -2 4 9 6 7 15 -9 -4 -8 13 18 24 -15 -6 17 -5 -13 25 -3 -7 23 -21 -12 28 27 29 -1 -27
right_child=1 20 3 16 5 21 10 8 -10 -11 11 12 -14 14 -16 -17 -18 -19 -20 22 -22 -23 -24 -25 -26 26 -28 -29 -30 -31
leaf_value=-0.066072586635079963 -0.099823878331435592 -0.0077857778775876412 -0.069121596930048462 0.061530698067470385 0.22258061840518772 0.074237278368158174 0.36010334893099311 0.21976462545142469 0.037661938970163372 0.12249506690475379 0.39774223391072422 0.29630088374814595 0.073684706642399275 0.1741605451938576 0.33718332184481664 0.37573240656949936 0.014677751252249144 0.20615128829705376 0.16915094554029142 -0.10035296282950318 -0.10010568859950818 0.18547411840982675 -0.100336156030883 0.096279076501780025 0.32295640250036084 -0.10031487189049787 -0.014596826619374779 -0.056772848147058942 -0.10009292238233719 -0.10133360223381001
leaf_weight=2.9288634434342375 15.030828617513178 3.196183659136298 2.817185215651989 3.6209223940968496 3.9398002326488522 3.908111870288848 5.1184251904487601 4.2676260471343976 4.8608020693063736 3.5206447541713706 3.7463776767253938 4.6994626224040967 3.3129304498434067 5.9872534424066526 4.445460170507431 3.3125559985637665 5.0440822020173073 3.5492014586925507 3.2474660724401474 2.3868474811315528 22.019601903855801 3.4361123740673065 2.7154535204172134 2.515289232134819 3.6742652803659439 6.4526131674647313 2.319354496896266 2.2887172624468795 88.823292799293995 4.4363155290484428
leaf_count=26 137 26 20 26 25 27 31 26 32 25 22 29 21 35 24 21 36 26 20 21 197 23 24 20 20 57 20 20 795 37
internal_value=0 0.0938099 0.144003 0.191905 0.212365 0.231507 0.246776 0.197945 0.122797 0.0373209 0.270143 0.254327 0.19413 0.292292 0.243626 0.292534 0.0842057 0.133118 0.244342 -0.0924075 -0.0884038 0.126281 -0.0354201 0.000539052 0.360713 -0.0964552 -0.0813469 -0.0930954 -0.0990069 -0.10073
internal_weight=0 116.755 91.5395 76.5087 64.2945 57.9566 50.6124 16.3808 9.12843 6.33783 34.2316 29.1132 11.2599 17.8534 10.4327 7.25236 12.2142 7.17012 7.94693 114.867 25.2158 7.34422 7.61759 4.90214 7.42064 107.249 15.497 13.1776 91.7522 10.8889
internal_count=1869 849 626 489 401 356 306 104 58 45 202 171 70 101 59 46 88 52 49 1020 223 50 65 41 42 955 134 114 821 94
is_linear=0
shrinkage=0.1


Tree=16
num_leaves=31
num_cat=0
split_feature=10 7 10 10 7 10 10 7 9 9 7 7 7 7 10 7 8 5 10 11 10 7 7 10 10 13 13 7 10 6
split_gain=431.783 281.695 27.8234 18.3431 8.39406 3.49572 1.77065 0.00937195 0.000713031 0.000710818 0.000111229 0.000105839 9.11571e-05 8.49295e-05 0.000128993 7.93925e-05 7.1069e-05 0.000112511 6.73239e-05 4.8342e-05 4.17917e-05 3.82416e-05 4.10012e-05 7.1405e-05 3.7274e-05 3.35499e-05 3.3366e-05 2.98313e-05 2.96404e-05 2.69433e-05
threshold=126.07741874410642 4.7786206896551731 117.99437476732167 119.04983012325317 4.5718390804597711 132.44371923344659 114.84926537189948 4.341206896551725 1.0000000180025095e-35 0.39500000000000007 4.6658045977011504 4.4906609195402307 4.5837068965517247 4.2185632183908064 162.0508794564345 5.2010344827586215 11349490.852154328 78202.000000000015 179.64264416890325 -2.6496522790254162 174.5999169702354 4.5690517241379318 4.2985919540229895 181.38998516501098 152.0048071552641 171.50000000000003 171.50000000000003 4.5266379310344833 152.0048071552641 2019.5000000000002
decision_type=2 2 2 2 2 2 2 2 2 2 2 2 2 2 2 2 2 2 2 2 2 2 2 2 2 2 2 2 2 2
left_child=1 2 6 -4 -5 -2 7 -1 11 12 13 -7 16 18 27 -3 -9 -18 19 -10 24 22 23 -16 -12 -23 -21 28 -15 -29
right_child=5 15 3 4 -6 8 -8 9 10 -11 20 -13 -14 14 21 -17 17 -19 -20 26 -22 25 -24 -25 -26 -27 -28 29 -30 -31
leaf_value=0.37110854893206591 -0.0079523944125387616 -0.10013048680851451 0.01484839938402284 0.40037845458638721 0.16626036903504215 -0.099377480723202904 0.29962701654260898 0.36640292377986117 -0.099467847524972799 0.36738088916384659 -0.099515846009252562 -0.098738149322173507 0.36573377177518918 -0.10023698612482408 -0.1004311742211397 -0.099551325039354654 0.36583524424826974 0.36644752631502664 -0.099950049008105502 -0.099651838624850955 -0.099612692323562735 -0.099752138226760934 -0.10032479934979238 -0.099791646377390686 -0.09997526752292854 -0.10015355398545078 -0.099999009733099928 -0.099553807329257407 -0.099814367976245211 -0.099939268196521547
leaf_weight=4.5079163163900366 4.2610885426402083 2.6883327513933208 4.1771245002746564 3.1504500135779381 2.9800784587860107 17.835955701768402 4.3769887536764136 7.6483654379844728 5.5566455870866802 4.7457660287618628 2.2505199983716038 3.0291416347026816 6.6230244636535636 2.5955947190523139 2.8589286282658604 19.795768029987812 9.7257343828678113 4.3406050503253928 37.715700969099998 5.4163384139537794 14.150161154568194 3.4899585247039777 16.456885918974876 4.4842632487416267 8.2021682485938054 5.1613788679242134 5.662419855594635 5.2693201601505262 4.6017580106854439 2.7649015933275223
leaf_count=22 35 24 30 20 24 168 24 37 52 23 21 30 32 23 25 184 47 21 341 50 131 32 145 41 74 46 51 49 42 25
internal_value=0 0.196363 0.323667 0.176458 0.286573 -0.0972468 0.359822 0.366831 -0.0998263 0.366248 -0.0999156 -0.0992847 0.366059 -0.0999616 -0.100059 -0.0996206 0.366158 0.366024 -0.0998761 -0.0997086 -0.0997247 -0.100172 -0.100237 -0.100041 -0.0998764 -0.0999916 -0.0998293 -0.0998189 -0.0999668 -0.0996865
internal_weight=0 74.7602 52.2761 10.3077 6.13053 151.763 41.9684 37.5914 147.502 33.0835 126.637 20.8651 28.3377 102.034 47.683 22.4841 21.7147 14.0663 54.3511 16.6354 24.6028 32.4514 23.8001 7.34319 10.4527 8.65134 11.0788 15.2316 7.19735 8.03422
internal_count=1869 488 280 74 44 1381 206 182 1346 160 1148 198 137 922 428 208 105 68 494 153 226 289 211 66 95 78 101 139 65 74
is_linear=0
shrinkage=0.1


Tree=17
num_leaves=31
num_cat=0
split_feature=10 10 7 10 7 10 7 5 3 5 11 6 5 7 8 7 11 3 10 9 7 7 7 7 13 7 10 7 11 13
split_gain=117.358 146.945 68.2409 21.4288 8.79777 8.60361 10.5009 5.84219 4.99141 4.85669 4.5988 6.48069 3.95719 1.31856 0.890829 1.52103 2.42136 0.699084 0.000159386 8.37657e-05 1.98971e-05 1.73858e-05 1.25025e-05 8.61232e-06 8.36981e-06 7.27803e-06 4.9472e-06 4.52845e-06 3.79579e-06 3.2481e-06
threshold=153.00477821679024 115.84830748190036 4.8999712643678164 147.94729784397947 4.4263218390804608 170.6250867418232 4.7355172413793118 88776.000000000015 3.5100000000000002 117181.50000000001 -1.5490820340682869 2018.5000000000002 69686.000000000015 4.6141954022988516 12443796.681435732 4.4126436781609204 -2.7930737305448488 2.7100000000000004 118.75218200947383 1.0000000180025095e-35 4.680890804597702 4.3098275862068975 4.4906609195402307 4.5690517241379318 171.50000000000003 4.2185632183908064 159.93406242170144 4.2266091954022995 -6.9135657476389589 173.50000000000003
decision_type=2 2 2 2 2 2 2 2 2 2 2 2 2 2 2 2 2 2 2 2 2 2 2 2 2 2 2 2 2 2
left_child=1 17 3 4 -3 6 9 8 -6 14 13 -12 -5 -10 26 25 -17 -1 -4 22 21 29 -7 -23 -25 -16 -2 -28 -22 -21
right_child=5 2 18 12 7 19 -8 -9 10 -11 11 -13 -14 -15 15 16 -18 -19 -20 20 28 23 -24 24 -26 -27 27 -29 -30 -31
leaf_value=-0.019263659796460053 -0.094406434471049919 0.18862915352394005 -0.095659826661431344 0.18594150675035592 0.2255059954474728 -0.094315007918568741 0.16630618707983835 0.47742419762657423 0.39128456285564162 0.094903346269636202 0.21301266218182807 0.41810869643552789 -0.032574746777084065 0.48324422733873668 -0.094414022726307986 -0.095123981137663849 0.053605251956639337 -0.094412925039124435 -0.094401313098199061 -0.094584371448634241 -0.094583872721406392 -0.094793713008170605 -0.093999056436575731 -0.094445787677282456 -0.094729030596438446 -0.094712095258907003 -0.094444314321468659 -0.094659540007242152 -0.094410129396454046 -0.094497157610768934
leaf_weight=1.3231518790125871 2.4124181866645875 2.7770899236202338 1.4645471982657898 1.7652910724282258 2.7007879838347462 9.3914677612483484 2.6589524224400511 4.5993753448128691 3.2044822201132854 2.0978572145104399 3.1211094260215662 3.0425268784165382 1.5620845630764959 3.0368605479598045 2.2299279645085321 1.8463601842522646 2.6885599493980381 19.20876969397068 3.2162948288023472 26.707146488130096 1.5271650962531564 6.2370752990245801 1.445157554000615 1.8053139820694921 2.4715597853064537 1.2948081307113168 1.4936383999884126 2.8295960836112499 7.1194240748882276 5.0830424837768069
leaf_count=20 39 27 20 21 18 154 31 29 21 28 22 21 20 19 36 27 39 310 52 420 24 95 25 29 38 20 24 44 115 81
internal_value=0 0.117236 0.256498 0.320208 0.355262 -0.0762302 -0.0184149 0.378746 0.348701 -0.0474897 0.375523 0.314253 0.0833559 0.43603 -0.0676799 -0.0452479 -0.00694879 -0.08957 -0.0947951 -0.0945253 -0.094579 -0.0946073 -0.0942729 -0.0947188 -0.0946095 -0.0945235 -0.0945212 -0.0945852 -0.0944408 -0.0945704
internal_weight=0 51.0224 30.4904 25.8096 22.4822 81.3395 19.5521 19.7051 15.1058 16.8932 12.405 6.16364 3.32738 6.24134 14.7953 8.05966 4.53492 20.5319 4.68084 61.7874 50.9507 42.3041 10.8366 10.5139 4.27687 3.52474 6.73565 4.32323 8.64659 31.7902
internal_count=1869 600 270 198 157 1269 288 130 101 257 83 43 41 40 229 122 66 330 72 981 802 663 179 162 67 56 107 68 139 501
is_linear=0
shrinkage=0.1


Tree=18
num_leaves=31
num_cat=0
split_feature=7 10 10 7 10 5 10 3 5 10 3 10 7 7 3 11 9 10 10 7 10 10 10 10 10 13 6 10 10 10
split_gain=157.994 269.849 6.51038 4.39542 15.2242 5.72323 4.10224 2.9023 3.9718 1.37817 3.39223 0.750855 0.956745 0.402192 0.268073 0.119711 0.000609363 0.000213839 0.00010589 0.000138631 6.31672e-05 6.25695e-05 8.43901e-05 5.68918e-05 5.01642e-05 6.44188e-05 5.53935e-05 4.51873e-05 4.50867e-05 4.42491e-05
threshold=4.5314080459770123 166.5456498020055 171.355343730649 4.410201149425288 177.77976177764489 61367.000000000007 164.62323961112153 3.77 74896.000000000015 186.3031829256966 4.830000000000001 158.98018317317067 4.6254885057471276 4.6499425287356333 4.330000000000001 -1.632509980261418 1.0000000180025095e-35 164.62323961112153 116.3761269339892 4.2424137931034496 126.07741874410642 187.01270444518175 160.0857470461371 151.10228559468683 179.18997556507929 171.50000000000003 2020.5000000000002 177.22589634065642 145.26075814852067 121.58149960854065
decision_type=2 2 2 2 2 2 2 2 2 2 2 2 2 2 2 2 2 2 2 2 2 2 2 2 2 2 2 2 2 2
left_child=3 6 -3 16 17 -6 11 8 -4 10 -9 28 -13 -11 -15 -16 27 20 -18 24 -5 22 -21 -22 25 -20 -26 -1 29 -2
right_child=1 2 7 4 5 -7 -8 9 -10 13 -12 12 -14 14 15 -17 18 -19 19 21 23 -23 -24 -25 26 -27 -28 -29 -30 -31
leaf_value=-0.096921324319244495 -0.097673443149148817 0.12616728031384331 0.15644321770973602 -0.097704239346693769 -0.028039575634897847 0.16410711168508865 0.058310521857278114 0.27823730112898182 0.26482897105369102 0.29998618180439612 0.18518189414152697 -0.0068005628769528554 -0.098260713695716484 0.24888519625886671 0.28817476560930994 0.26779759204931736 -0.097588987978733763 -0.098875811459486762 -0.097632877691871026 -0.098086723329131875 -0.098555783670513555 -0.098059815585423787 -0.09870066252157858 -0.097921626111215229 -0.098023226983625075 -0.098054085490889897 -0.09837810390893334 -0.097407397979401733 -0.097901767297565515 -0.097396176014228911
leaf_weight=2.3056468069553366 27.951685011386871 5.0948332101106635 7.5297869592905027 7.9322944507002884 2.6764714419841757 3.6836440414190292 1.8525193035602558 8.6853245943784696 6.1362472027540207 4.9557683467865017 7.1361188367009154 2.1682196408510199 2.4206811264157295 5.2771366983652142 4.7939286082983008 7.2325442880392066 4.4719326794147483 2.61882160604 6.8719077929854375 3.3313691541552526 2.081449531018734 4.7549475058913222 6.8275717720389366 4.4160964041948318 29.030062764883041 7.6988114267587662 5.1839334443211547 11.217601612210272 6.567105419933795 7.2484213337302199
leaf_count=27 304 31 36 86 21 25 14 39 27 22 33 21 25 22 20 29 49 26 75 35 21 50 68 47 306 81 53 125 70 81
internal_value=0 0.0864223 0.234024 -0.0869909 -0.0487878 0.0832477 -0.0876113 0.244643 0.20511 0.25883 0.236266 -0.0934427 -0.0550465 0.274869 0.267675 0.27592 -0.0979377 -0.0980445 -0.0980594 -0.0980924 -0.0978936 -0.0983592 -0.0984993 -0.0981248 -0.0980108 -0.0978554 -0.098077 -0.0973245 -0.0976612 -0.0976163
internal_weight=0 105.05 56.8417 105.103 23.4088 6.36012 48.2086 51.7469 13.666 38.0808 15.8214 46.3561 4.5889 22.2594 17.3036 12.0265 81.6938 17.0487 68.1705 63.6986 14.4298 14.9139 10.1589 6.49755 48.7847 14.5707 34.214 13.5232 41.7672 35.2001
internal_count=1869 774 259 1095 226 46 515 228 63 165 72 501 46 93 71 49 869 180 717 668 154 153 103 68 515 156 359 152 455 385
is_linear=0
shrinkage=0.1


Tree=19
num_leaves=31
num_cat=0
split_feature=7 13 7 7 10 9 10 10 10 3 7 7 10 7 7 10 10 13 6 10 10 13 10 10 5 11 10 10 7 11
split_gain=518.719 0.666141 0.465049 0.0591866 0.0357468 0.000879964 0.000445754 0.00141464 0.000407693 0.000384842 0.000138049 0.000208995 0.000139653 0.000128892 0.000107944 0.000108156 4.52072e-05 5.81139e-05 4.9796e-05 4.38363e-05 5.49812e-05 6.35145e-05 4.1426e-05 3.73446e-05 3.58721e-05 3.36093e-05 3.09205e-05 3.52182e-05 4.97691e-05 3.83367e-05
threshold=4.9934482758620691 171.50000000000003 4.8999712643678164 5.2112356321839091 122.74366420933008 1.0000000180025095e-35 115.36535124849811 118.14755077419561 131.17568626511405 3.3900000000000001 4.5775574712643694 4.2424137931034496 164.62323961112153 4.4831321839080465 4.3478160919540239 178.54635815410197 179.18997556507929 171.50000000000003 2020.5000000000002 121.58149960854065 114.84926537189948 171.50000000000003 177.22589634065642 149.1163206635172 76121.500000000015 -2.6496522790254162 153.00477821679024 177.77976177764489 4.680890804597702 -5.0953141239194855
decision_type=2 2 2 2 2 2 2 2 2 2 2 2 2 2 2 2 2 2 2 2 2 2 2 2 2 2 2 2 2 2
left_child=2 -2 5 -3 6 13 9 -8 19 -5 11 16 23 22 15 -14 17 -10 24 20 -7 -22 -1 -13 -18 -19 -12 -28 -29 -30
right_child=1 3 -4 4 -6 8 7 -9 10 -11 26 12 14 -15 -16 -17 18 25 -20 -21 21 -23 -24 -25 -26 -27 27 28 29 -31
leaf_value=-0.096639247417911453 0.23807906161335365 0.27970837854695602 -0.049621568813868616 0.26811434711945392 0.27631642316432647 -0.097266986342139539 0.2693487683891615 0.26706773492197283 -0.097336782164109625 0.26712717632166266 -0.097282475951312397 -0.098128539599885697 -0.098548204479613405 -0.096214770090345306 -0.098451570340356231 -0.097720957313437579 -0.097620671321050928 -0.097436371132931576 -0.098054051566586961 -0.096993231186579057 -0.0972353698477188 -0.097828285905510765 -0.097088054840250293 -0.097665418698465775 -0.09785075936322396 -0.097889210505100854 -0.097729777233095394 -0.097782339771775459 -0.097738256932669951 -0.097254212484323324
leaf_weight=2.4858738034963634 7.5762113183736792 5.608182117342948 2.0498443320393553 4.9864005148410824 5.4001309573650351 16.114990971982486 4.9748182594776136 5.9954842180013657 6.6796598285436612 18.98359289765358 3.2710926011204746 2.1931915879249599 2.1837812513113048 2.370479777455329 9.3458458334207517 5.7204273864626884 16.920241825282577 2.4240561276674271 5.0401117280125609 3.522121585905551 2.9879264682531348 4.5700738653540611 11.909988380968569 8.4479279071092588 11.301930189132689 5.0605383813381195 12.461218863725664 4.1787581145763388 2.1286332011222857 7.0732980221509898
leaf_count=30 31 23 21 20 22 182 20 24 75 76 37 23 22 30 95 62 185 27 53 41 34 49 137 92 121 54 135 45 23 80
internal_value=0 0.265553 -0.0969269 0.270083 0.268744 -0.0975803 0.267574 0.268102 -0.0976673 0.267333 -0.0977571 -0.0978286 -0.0980458 -0.096898 -0.0982215 -0.0979495 -0.0977008 -0.0975512 -0.0977645 -0.0973224 -0.0973714 -0.0975939 -0.0970106 -0.0977609 -0.0977128 -0.0977425 -0.0975721 -0.0976088 -0.0974961 -0.0973662
internal_weight=0 53.5248 150.442 45.9486 40.3404 148.392 34.9403 10.9703 131.626 23.97 104.431 75.3177 27.8912 16.7663 17.2501 7.90421 47.4265 14.1643 33.2623 27.1951 23.673 7.558 14.3959 10.6411 28.2222 7.48459 29.113 25.8419 13.3807 9.20193
internal_count=1869 216 1653 185 162 1632 140 44 1435 96 1129 809 294 197 179 84 515 156 359 306 265 83 167 115 306 81 320 283 148 103
is_linear=0
shrinkage=0.1


Tree=20
num_leaves=31
num_cat=0
split_feature=9 7 10 7 10 7 11 10 10 7 7 10 10 7 10 7 10 13 6 11 7 5 11 8 7 8 6 7 6 6
split_gain=511.505 0.291805 0.114326 0.03893 0.00800314 0.00276404 0.00151736 0.000464243 0.000176242 0.000103737 0.000115827 0.00016013 5.32254e-05 4.62605e-05 8.29146e-05 7.49274e-05 3.52757e-05 4.53447e-05 3.87913e-05 3.22171e-05 3.40164e-05 2.79948e-05 2.62352e-05 2.08726e-05 1.99704e-05 1.83467e-05 1.63714e-05 1.59685e-05 1.49667e-05 1.40661e-05
threshold=1.0000000180025095e-35 4.4831321839080465 177.22589634065642 4.379798850574713 183.78945757592996 4.2239942528735641 -1.381205655769367 145.26075814852067 193.80576209685509 4.636120689655173 4.2424137931034496 164.10082789715446 174.09219931959547 4.3478160919540239 178.54635815410197 4.5690517241379318 179.18997556507929 171.50000000000003 2020.5000000000002 -6.5401723653286821 4.680890804597702 76121.500000000015 -2.6496522790254162 13231463.103263566 4.7160632183908051 16742448.93693901 2016.5000000000002 4.3098275862068975 2018.5000000000002 2018.5000000000002
decision_type=2 2 2 2 2 2 2 2 2 2 2 2 2 2 2 2 2 2 2 2 2 2 2 2 2 2 2 2 2 2
left_child=1 2 -1 4 -4 6 -6 -2 -8 10 16 25 24 14 -13 28 17 -9 21 -14 -21 -18 -19 -17 -11 -12 -23 -16 -15 -24
right_child=7 -3 3 -5 5 -7 8 9 -10 12 11 13 19 15 27 23 18 22 -20 20 -22 26 29 -25 -26 -27 -28 -29 -30 -31
leaf_value=0.28790112375872751 -0.09665912768745992 0.29816873875195005 0.27610267729360277 0.28231037682675836 0.27255815781582404 0.27343383372579727 0.27084285268684327 -0.09666484378090523 0.27004823750900181 -0.096875195810424905 -0.096888536807308551 -0.09775421422777246 -0.097042154990112706 -0.097841036347452184 -0.096890180044922461 -0.096974072117915505 -0.096924453703237712 -0.096755806361680741 -0.09732037403630589 -0.097042704586864037 -0.096566786964908474 -0.097353459384117297 -0.097321662670238313 -0.097436128308683853 -0.097184473734773014 -0.097221156623506305 -0.097063860357523415 -0.097253418613003462 -0.097570265638248568 -0.096973752438181834
leaf_weight=7.2009343653917304 45.743976578116417 7.2953415662050238 5.4023247361183193 4.853247493505477 4.9445561021566453 7.4043180495500556 5.7049599289894086 6.2341384589672071 5.4651317149400711 3.7349611744284648 9.1828478053212184 2.1295760720968273 2.5947890654206267 4.3861557543277723 3.4871761351823807 2.1463189274072643 15.795629978179937 2.2625433430075645 4.7068230956792823 1.8144117966294278 8.71800449490547 2.5855105444788915 2.6640894189476967 1.7955292537808416 4.7340923249721527 2.0237528756260863 7.9674135446548462 1.8535662442445753 3.8186177015304565 2.0611977353692055
leaf_count=30 551 31 22 20 20 30 23 75 22 44 108 23 30 47 41 25 185 27 53 21 106 29 30 20 54 23 92 21 42 24
internal_value=0 0.279742 0.276462 0.274023 0.272632 0.271835 0.2711 -0.0969216 0.270454 -0.0970458 -0.0971013 -0.0972502 -0.0968526 -0.0974224 -0.0972266 -0.0975429 -0.0969977 -0.0968609 -0.0970559 -0.0967265 -0.0966488 -0.0970087 -0.0970358 -0.0971845 -0.0970481 -0.0969486 -0.0971348 -0.0970162 -0.097715 -0.0971699
internal_weight=0 48.2708 40.9755 33.7745 28.9213 23.519 16.1146 142.441 11.1701 96.6971 75.1009 30.8235 21.5963 19.6169 7.47032 12.1466 44.2773 13.222 31.0554 13.1272 10.5324 26.3486 6.98783 3.94185 8.46905 11.2066 10.5529 5.34074 8.20477 4.72529
internal_count=1869 198 167 137 117 95 65 1671 45 1120 865 350 255 219 85 134 515 156 359 157 127 306 81 45 98 131 121 62 89 54
is_linear=0
shrinkage=0.1


Tree=21
num_leaves=31
num_cat=0
split_feature=10 10 7 10 8 3 11 7 10 11 7 7 4 9 6 8 11 11 8 7 7 5 10 9 7 10 6 10 7 7
split_gain=99.4341 192.247 84.7005 18.604 9.6637 8.1047 7.26847 4.36411 9.49831 5.29791 2.79207 2.70745 2.56804 2.27583 3.97212 4.63074 2.22064 4.89235 4.21509 1.50092 1.33649 0.84421 0.00149812 0.000712946 0.000319192 5.14514e-05 4.86659e-05 4.68188e-05 4.65098e-05 4.40678e-05
threshold=175.58886538327675 141.40949968669747 4.2870977011494267 165.00187963228265 14392660.310024222 4.0300000000000002 -0.9703211335434293 4.5414080459770121 185.3695100109569 -2.1779609803351483 4.2352586206896561 4.6658045977011504 2013.5000000000002 0.115 2016.5000000000002 9309450.255047638 -7.0498082860436773 1.5858236813119697 12443796.681435732 4.595977011494254 4.595977011494254 86252.500000000015 164.62323961112153 1.0000000180025095e-35 4.3478160919540239 172.51874481756695 2020.5000000000002 131.17568626511405 4.3952298850574723 4.680890804597702
decision_type=2 2 2 2 2 2 2 2 2 2 2 2 2 2 2 2 2 2 2 2 2 2 2 2 2 2 2 2 2 2
left_child=1 27 10 13 5 -5 -6 23 9 -9 21 -11 -7 14 19 -16 -17 18 -18 -4 -15 22 -3 28 26 -24 -25 -1 -2 -10
right_child=7 2 3 4 6 12 -8 8 29 11 -12 -13 -14 20 15 16 17 -19 -20 -21 -22 -23 25 24 -26 -27 -28 -29 -30 -31
leaf_value=-0.097612370267623191 -0.097396937814917928 -0.10091322907882494 0.32164952558473181 0.28419375160047455 0.11680446388963434 0.04166731626272633 -0.10559156461273776 0.15692659786725327 -0.098055354314982635 0.050962994386178288 0.041919119635793242 -0.098951407554746351 0.16032419399458775 0.31808837689149932 0.11088002581449784 0.28865018200633707 0.2353378443111212 0.26307931175955906 0.10192643680582557 0.24139695639176062 0.2436304121340469 -0.040243743877326418 -0.097766650476417152 -0.09800790877097959 -0.098897121643583774 -0.098356111463740736 -0.098289243253896694 -0.098044230322863857 -0.096878509640235977 -0.0976549600656407
leaf_weight=47.179880522191525 11.384698331356047 2.3377312421798688 4.710925564169882 3.9840927496552485 3.1026400029659271 3.3030419498682022 2.7919936329126349 2.6876328811049461 4.0760955810546866 2.6145055964589146 2.1089162155985823 2.2340846955776215 4.0732186958193779 4.750776991248129 4.2841830402612713 4.3302699476480475 4.1870564222335869 8.7764466255903226 5.451719343662262 4.6119008213281631 4.8941816240549088 3.4085591956973067 4.3530692383646965 37.040204465389252 5.0033451169729224 2.24415373057127 7.3724514096975318 2.6514295265078536 2.0406679362058631 8.441668435931204
leaf_count=516 127 20 21 20 21 20 21 20 43 21 19 22 27 21 20 19 19 39 27 20 22 34 47 391 49 23 76 28 24 92
internal_value=0 0.0556802 0.154 0.203906 0.115359 0.169266 0.0114666 -0.0850027 -0.044386 0.0443111 -0.0644174 -0.0181131 0.10719 0.237122 0.225665 0.206252 0.224215 0.209063 0.15988 0.281949 0.280306 -0.0825853 -0.098738 -0.0979644 -0.0981399 -0.0979672 -0.0980546 -0.0976353 -0.0973181 -0.0977853
internal_weight=0 127.536 77.7049 63.2524 17.255 11.3604 5.89463 82.8954 20.054 7.53622 14.4524 4.84859 7.37626 45.9975 36.3525 27.0297 22.7455 18.4152 9.63878 9.32283 9.64496 12.3435 8.93495 62.8414 49.416 6.59722 44.4127 49.8313 13.4254 12.5178
internal_count=1869 1004 460 317 109 67 42 865 198 63 143 43 47 208 165 124 104 85 46 41 43 124 90 667 516 70 467 544 151 135
is_linear=0
shrinkage=0.1


Tree=22
num_leaves=31
num_cat=0
split_feature=7 10 9 10 13 10 10 7 5 10 13 10 11 3 7 7 7 11 7 6 5 3 7 3 13 10 11 5 6 3
split_gain=126.798 122.364 34.9281 17.2672 10.1019 7.84393 7.48137 7.41996 6.73726 6.69898 6.86908 5.27252 4.96259 3.09087 2.82677 2.53864 1.97027 1.84221 1.80637 3.68584 1.72009 1.34165 0.891781 1.47613 0.784926 1.13275 0.570438 0.510981 0.416875 0.179104
threshold=4.3300574712643689 181.38998516501098 1.0000000180025095e-35 154.32017935768928 171.50000000000003 185.3695100109569 176.93963298593641 4.477241379310346 82704.000000000015 155.01867274723674 170.50000000000003 176.93963298593641 -5.6713062189519041 5.9900000000000011 4.2566666666666677 4.1720114942528737 4.0825862068965524 -1.0774399297479926 3.9481609195402299 2019.5000000000002 86252.500000000015 4.3900000000000015 4.2108908045977023 4.4900000000000011 168.50000000000003 163.07686364669024 2.0072114204385141 131579.50000000003 2017.5000000000002 5.0100000000000007
decision_type=2 2 2 2 2 2 2 2 2 2 2 2 2 2 2 2 2 2 2 2 2 2 2 2 2 2 2 2 2 2
left_child=1 2 -1 -4 5 -3 14 9 17 -2 -11 21 -7 18 15 16 20 -8 19 -6 28 -12 29 -24 25 -9 -14 -26 -5 -20
right_child=7 4 3 6 13 12 8 24 -10 10 11 -13 26 -15 -16 -17 -18 -19 22 -21 -22 -23 23 -25 27 -27 -28 -29 -30 -31
leaf_value=-0.10047138645151868 -0.097105214974593262 0.14866663253471998 0.0057887069960737298 0.27089170280842201 -0.097757683085050701 0.076161505520583581 0.14330526612454395 -0.097540462959886956 0.26605014141809441 0.12813405059433952 0.09857006032114031 -0.097612431066800773 -0.037887863807781877 0.059953379531791001 0.17843590139820875 0.32137343464159557 0.20374009945945054 0.03270258843762671 -0.097809112173292106 0.076814532474181685 0.2182878176712697 -0.0087166076958862266 -0.09773667796044877 3.9565304949713699e-05 -0.097064935482657058 0.0047723406854107506 -0.098177652605682397 -0.043916835613170488 0.3093462915139043 -0.074756106029852235
leaf_weight=3.7953011244535437 8.6052370667457598 4.3335908874869338 3.6312226355075827 5.5360202938318306 2.5798464938998249 3.9366082847118369 3.1866818442940712 2.4383012652397147 3.4588082134723663 3.8797714039683333 2.4909060671925527 5.2475247383117676 3.2470509558916083 1.8875509575009335 4.1670273765921584 6.5336816906929007 6.4197451621294013 2.8552458435296995 15.402110174298292 2.2768436446785927 4.6666201502084723 2.1907158717513084 3.1117384433746329 3.0647797212004662 70.775040909647942 1.9455569609999654 3.0373611748218536 1.8564104363322247 5.7441983819007874 4.3141509070992461
leaf_count=34 99 30 31 24 28 32 21 27 21 29 20 58 31 19 25 30 29 19 168 23 21 20 34 33 819 21 32 20 25 46
internal_value=0 0.0821333 0.191151 0.215108 -0.0333591 0.0359236 0.232963 -0.078489 0.154752 -0.0278517 0.0153046 -0.028783 -0.0118781 -0.064256 0.255435 0.266537 0.250518 0.0910375 -0.0718806 -0.0159172 0.26935 0.0483664 -0.0823776 -0.0492202 -0.0932263 -0.052134 -0.0670269 -0.0957065 0.290474 -0.0927648
internal_weight=0 97.1862 49.9946 46.1993 47.1916 14.5546 42.568 99.4295 9.50074 22.4142 13.8089 9.92915 10.221 32.637 33.0673 28.9003 22.3666 6.04193 30.7495 4.85669 15.9468 4.68162 25.8928 6.17652 77.0153 4.38386 6.28441 72.6315 11.2802 19.7163
internal_count=1869 756 280 246 476 125 215 1113 61 226 127 98 95 351 154 129 99 40 332 51 70 40 281 67 887 48 63 839 49 214
is_linear=0
shrinkage=0.1


Tree=23
num_leaves=31
num_cat=0
split_feature=7 10 9 13 10 13 10 11 11 5 5 5 5 13 11 11 7 5 13 5 8 8 10 7 5 7 10 5 3 8
split_gain=138.85 46.6518 56.1568 21.5609 8.49832 5.23358 4.32088 7.81238 4.21869 4.2088 4.56473 4.39541 4.18923 5.6128 3.43239 3.35372 3.1255 3.04481 2.72438 8.64093 8.29234 7.83696 5.53626 4.04811 2.58287 1.81825 4.56356 1.46169 1.14216 0.410152
threshold=4.4056034482758628 177.77976177764489 1.0000000180025095e-35 173.50000000000003 165.27294420321206 171.50000000000003 185.75382119351391 -6.712375466758826 -0.64471668158736117 111085.50000000001 89519.000000000015 83165.500000000015 46955.500000000007 172.50000000000003 0.42558463987528378 1.0581545494809719 4.2239942528735641 84832.000000000015 172.50000000000003 57855.000000000007 13432815.577394078 12321747.768116208 190.45129252753409 4.0737356321839089 57101.000000000007 4.4696264367816108 184.02328907352901 59802.500000000007 4.8100000000000014 16167437.122319115
decision_type=2 2 2 2 2 2 2 2 2 2 2 2 2 2 2 2 2 2 2 2 2 2 2 2 2 2 2 2 2 2
left_child=1 4 -3 5 -1 6 8 -8 -4 10 11 18 28 15 -9 -14 17 27 20 21 -7 -20 -21 -23 -22 26 29 -5 -6 -2
right_child=25 2 3 16 12 9 7 14 -10 -11 -12 -13 13 -15 -16 -17 -18 -19 19 22 24 23 -24 -25 -26 -27 -28 -29 -30 -31
leaf_value=-0.09759074900503209 -0.098040592030903706 -0.097448369206099839 -0.099387924754234622 0.22564379632781409 -0.098651768386011376 -0.028565497216114673 0.2411429691630835 -0.0077560360877928962 0.072897144006296724 0.24440740233977679 0.014395912743015986 0.24746945210240337 -0.073634741254535382 0.13020829111022519 0.11809924098380764 0.058740905013762848 0.31760986109507949 0.28705061788204006 0.20593938760509389 0.31846953919482085 0.22215035961270196 0.09846444357548384 0.13955944132227485 -0.069286764861398092 0.095634943878682654 -0.094887946914624904 0.07434852317778283 0.14286770666494614 -0.0040689447875057703 -0.044701233993213969
leaf_weight=11.692073710262777 6.2119965031743032 10.783996894955633 2.4297190830111504 4.3313528448343295 3.2597194686532047 3.9394534230232292 3.1564994454383859 4.1839891299605334 3.4244553521275547 3.3694395571947089 3.2421808913350096 3.338417872786521 3.8934420570731145 4.705531120300293 4.4950455203652382 3.7641883119940758 4.3663822561502448 4.4304931163787833 3.5084384828805941 3.7342884615063658 3.0603328719735146 2.9381064921617508 3.2218709886074066 2.8185197189450264 3.4136353060603142 80.36303124576807 2.2861347422003737 4.2036273926496506 2.0987612679600716 1.8772716522216795
leaf_count=129 66 121 23 20 33 28 20 32 27 19 20 19 38 36 33 34 22 21 22 22 22 20 20 20 21 901 20 20 20 20
internal_value=0 0.0766955 0.115292 0.14733 -0.0314152 0.116322 0.0716646 0.106423 0.00139187 0.137915 0.127112 0.139304 0.012245 0.0442539 0.0574269 -0.00856411 0.244434 0.21979 0.125747 0.151372 0.08583 0.0881309 0.235604 0.0163313 0.155441 -0.0898016 -0.0504051 0.184875 -0.0616064 -0.0856622
internal_weight=0 111.804 82.3902 71.6062 29.4137 54.2744 17.6897 11.8355 5.85417 36.5847 33.2152 29.9731 17.7216 12.3632 8.67903 7.65763 17.3319 12.9655 26.6346 16.2212 10.4134 9.26506 6.95616 5.75663 6.47397 90.7384 10.3754 8.53498 5.35848 8.08927
internal_count=1869 862 572 451 290 368 135 85 50 233 214 194 161 108 65 72 83 61 175 104 71 62 42 40 43 1007 106 40 53 86
is_linear=0
shrinkage=0.1


Tree=24
num_leaves=31
num_cat=0
split_feature=10 7 9 13 10 6 8 8 7 5 5 5 10 7 3 8 13 7 6 10 11 7 5 10 7 10 3 11 7 10
split_gain=161.369 76.1249 70.174 8.7912 11.7256 5.12136 3.54877 6.35035 3.37792 4.52049 4.19884 3.31101 4.89075 5.87085 7.89664 4.44999 6.04345 2.95951 2.85007 2.65112 2.60166 2.28719 1.71301 1.70442 0.921623 0.43471 1.28509 0.386277 0.352364 0.000302725
threshold=176.19294521164031 4.4620689655172425 1.0000000180025095e-35 173.50000000000003 179.86889353479995 2020.5000000000002 9638536.8413348328 10473188.93437398 4.2424137931034496 87356.000000000015 58478.500000000007 43225.000000000007 195.34836113705316 3.9948850574712647 3.9300000000000002 12273554.819198379 172.50000000000003 4.1028448275862077 2017.5000000000002 173.36650295840914 -2.2717517983583178 4.5314080459770123 66924.000000000015 175.25243907981937 4.4435344827586212 167.04494111894078 5.1500000000000012 9.5992802621706499 4.1058908045977018 131.17568626511405
decision_type=2 2 2 2 2 2 2 2 2 2 2 2 2 2 2 2 2 2 2 2 2 2 2 2 2 2 2 2 2 2
left_child=19 2 -2 4 18 6 -6 -8 9 10 -5 15 13 -13 -15 -9 -17 -16 -4 25 -19 -3 -7 24 -21 28 27 -27 -1 -30
right_child=1 21 3 8 5 22 7 11 -10 -11 -12 12 -14 14 17 16 -18 20 -20 23 -22 -23 -24 -25 -26 26 -28 -29 29 -31
leaf_value=-0.061753641659490356 -0.09819905662859206 -0.0070743845952634639 0.09497733860790819 0.060159189572979624 0.11912969771455373 0.13786277686559947 0.31116791292238355 0.1309499903691175 -0.015118863025096739 -0.0017365969375762449 0.21890353741583854 0.060656843778985496 0.23552865981181215 0.27889000554900983 0.19205681983772105 0.19179685496977039 0.33856784287041025 0.1543596751373722 -0.038122202301240853 0.039493511678152751 0.043848888912240119 -0.098613018378065978 0.04449231641526321 -0.099645982001414432 -0.049471583065665126 -0.099375648252508456 -0.0070113658595801825 -0.052416491360469775 -0.098464444557416569 -0.09887208169463485
leaf_weight=2.6816844046115866 13.219412811100481 3.1706746518611935 3.4902001097798339 3.0266044139862043 7.2744987010955802 4.8640837818384153 4.2284369319677344 4.0370246171951285 3.2641948685050002 2.902625784277916 3.7070419564843178 6.3189979195594814 7.6161034256219855 5.0591888725757626 5.2269814163446418 6.736086428165434 4.8078507333993912 4.0701610445976177 2.9845028594136238 2.8177133277058592 4.4697458148002687 19.619921125471592 3.2965927124023438 2.4590106606483459 1.9845594242215154 9.9543523564934713 2.1385619938373557 2.1257735565304747 50.896432183682919 28.374415457248688
leaf_count=26 137 26 24 21 38 29 22 20 21 20 26 34 37 26 28 32 23 21 21 23 25 197 21 23 19 95 19 20 516 279
internal_value=0 0.0791447 0.11653 0.149015 0.162216 0.174459 0.184593 0.193651 0.0728013 0.102583 0.147552 0.183372 0.165324 0.14406 0.172054 0.221321 0.252924 0.132793 0.0336253 -0.0902047 0.0965189 -0.085878 0.100145 -0.0319404 0.00272831 -0.0946039 -0.0784629 -0.0911121 -0.0974043 -0.0986104
internal_weight=0 123.391 100.6 87.3809 74.4805 68.0058 59.8451 52.5706 12.9005 9.63627 6.73365 48.3421 32.7612 25.1451 18.8261 15.581 11.5439 13.7669 6.4747 103.433 8.53991 22.7906 8.16068 7.26128 4.80227 96.1712 14.2187 12.0801 81.9525 79.2708
internal_count=1869 849 626 489 401 356 306 268 88 67 47 246 171 134 100 75 55 74 45 1020 46 223 50 65 42 955 134 115 821 795
is_linear=0
shrinkage=0.1


Tree=25
num_leaves=31
num_cat=0
split_feature=10 7 10 10 7 10 3 13 10 7 9 7 7 7 10 7 7 10 7 7 10 13 6 10 5 11 10 7 11 10
split_gain=326.357 170.569 13.1135 10.9735 3.66201 3.50384 1.05319 0.949262 1.03208 0.00388797 0.00138954 0.000355396 0.000213012 0.000264941 0.000197713 0.000179205 0.000142145 0.000142359 0.000120592 6.13934e-05 5.94339e-05 7.63538e-05 6.56973e-05 5.4397e-05 4.72273e-05 4.57755e-05 5.01139e-05 0.000101573 4.41333e-05 4.23198e-05
threshold=126.07741874410642 4.7786206896551731 117.99437476732167 119.04983012325317 4.5718390804597711 132.44371923344659 3.0700000000000007 170.50000000000003 113.62351158227825 4.3977011494252887 1.0000000180025095e-35 4.4562356321839092 4.5775574712643694 4.2424137931034496 164.62323961112153 4.4831321839080465 4.3478160919540239 178.54635815410197 5.2010344827586215 4.5798275862068971 179.18997556507929 171.50000000000003 2020.5000000000002 177.22589634065642 76121.500000000015 -6.712375466758826 179.86889353479995 4.680890804597702 -2.6496522790254162 153.00477821679024
decision_type=2 2 2 2 2 2 2 2 2 2 2 2 2 2 2 2 2 2 2 2 2 2 2 2 2 2 2 2 2 2
left_child=1 2 6 -4 -5 -2 -1 -8 9 -9 15 -11 13 20 -15 23 17 -16 -3 -13 21 -12 24 -7 -22 -14 29 -28 -23 -27
right_child=5 18 3 4 -6 10 7 8 -10 11 12 19 25 14 16 -17 -18 -19 -20 -21 22 28 -24 -25 -26 26 27 -29 -30 -31
leaf_value=0.21512009647348693 -0.0051897231139044374 -0.098816637940589869 0.012910705006768825 0.27911420392428543 0.13720607512185218 -0.097373648765035098 0.22968473728075078 0.26577166947736236 0.31337500760525 0.2639910878140857 -0.098143363232335828 0.26321077968151707 -0.098617539633794118 -0.098587884236744694 -0.099482143588446842 -0.096891937340201864 -0.099375220989650737 -0.098567383103212253 -0.098064880027183721 0.26286187983719456 -0.098456690586655196 -0.098253483056851609 -0.098936260341609225 -0.097868935289625786 -0.098711075383354774 -0.098119612463962266 -0.098639757187246949 -0.097996389047605506 -0.09875344066376289 -0.098538178703437729
leaf_weight=4.901527911424636 4.1534753888845435 2.4290792196989086 4.2266288772225362 4.0346325933933258 3.310593381524086 2.6805323064327267 6.9049686640501013 8.0125077366828901 4.7920206487178794 5.2762787491083172 7.1976372003555289 12.832586795091631 6.6827086657285681 11.141825035214426 2.3501704782247561 2.6385380402207366 10.058923423290251 6.1614524275064468 17.5559948310256 8.3088423013687116 18.226635232567791 2.6118013933300963 5.4271032959222785 12.836958810687063 12.171830013394354 3.0577177032828358 3.4012188315391532 8.8106557056307775 5.4498089030385009 11.501727648079394
leaf_count=20 35 24 30 20 24 30 28 32 21 21 75 51 67 112 22 31 95 62 184 33 185 27 53 137 121 32 34 93 54 116
internal_value=0 0.156195 0.237396 0.141285 0.215154 -0.0956295 0.259192 0.263875 0.269894 0.263842 -0.0984665 0.263257 -0.0985956 -0.0986835 -0.0989209 -0.0976538 -0.0991207 -0.09882 -0.0981563 0.263074 -0.0985454 -0.0983801 -0.0986158 -0.0977834 -0.0985585 -0.0983834 -0.098325 -0.0981756 -0.0985915 -0.0984503
internal_weight=0 82.5857 62.6006 11.5719 7.34523 136.561 51.0287 46.1272 39.2222 34.4302 132.407 26.4177 114.251 80.7972 29.7124 18.156 18.5705 8.51162 19.9851 21.1414 51.0848 15.2592 35.8256 15.5175 30.3985 33.454 26.7713 12.2119 8.06161 14.5594
internal_count=1869 488 280 74 44 1381 206 186 158 137 1346 105 1148 806 291 198 179 84 208 84 515 156 359 167 306 342 275 127 81 148
is_linear=0
shrinkage=0.1


Tree=26
num_leaves=31
num_cat=0
split_feature=10 10 10 7 7 7 10 10 10 11 6 10 10 5 8 5 11 7 10 9 10 8 7 7 7 3 7 7 11 7
split_gain=92.3108 72.9899 32.5471 46.1336 13.4408 5.11492 9.88426 5.71228 5.66968 3.80963 2.06078 4.91707 1.68906 3.74721 1.44553 0.620074 0.511089 0.000705654 0.000321997 0.000167539 0.000109279 0.000106823 4.73988e-05 4.2566e-05 4.54854e-05 4.1318e-05 2.41599e-05 1.91551e-05 1.03029e-05 8.07166e-06
threshold=163.76603158261403 114.84926537189948 147.94729784397947 4.9448850574712653 4.7160632183908051 4.5649712643678173 126.07741874410642 119.04983012325317 119.04983012325317 -5.1948542143116159 2019.5000000000002 159.77091487311174 170.6250867418232 98868.500000000015 16339779.859252477 85136.000000000015 -4.5529785601828801 4.6754022988505755 155.01867274723674 1.0000000180025095e-35 117.99437476732167 10904548.541585168 4.4315804597701165 4.6710632183908052 4.3145402298850586 2.8100000000000001 4.4831321839080465 4.5690517241379318 -6.9135657476389589 4.4562356321839092
decision_type=2 2 2 2 2 2 2 2 2 2 2 2 2 2 2 2 2 2 2 2 2 2 2 2 2 2 2 2 2 2
left_child=1 25 3 5 10 6 7 -3 -7 -10 14 -12 13 15 16 17 -4 22 -18 26 -5 -20 -2 24 -21 -1 -14 29 -25 -26
right_child=12 2 4 20 -6 8 -8 -9 9 -11 11 -13 19 -15 -16 -17 18 -19 21 23 -22 -23 -24 28 27 -27 -28 -29 -30 -31
leaf_value=-0.094300500005989205 -0.093898486903537567 0.20172192091493144 -0.027876421937508878 -0.094740480635612037 0.21431757997955742 0.37328449039360739 0.31912925925986291 0.01924272304399061 0.30932958055890725 0.20058101277689092 -0.054489360330318204 0.17671759914413243 -0.093563889104453846 0.092863418937071507 0.027053161328221016 -0.01655927501660116 -0.096223004618980104 -0.096924128762780892 -0.09388854709117736 -0.093945512108067356 -0.093708780504310793 -0.095062213268051643 -0.094639365007492288 -0.093994202292233486 -0.094230923583171089 -0.093695599708332605 -0.093093311626781583 -0.094021210918556419 -0.093698599473607397 -0.09448460272257575
leaf_weight=1.2137811519205595 2.4836938530206676 3.8604940101504344 1.4943891167640675 1.5416192486882199 2.8763047307729712 4.7217460051178959 3.9263867512345314 3.0874063670635223 5.5047951936721802 7.7657271102070791 2.4535187482833867 1.4714807495474813 8.1639826446771604 1.58799796923995 1.6317750625312326 1.2677939273416994 1.572451889514922 1.2148051634430883 1.574987765401602 28.748789396136999 3.0735122449696064 1.5276884846389291 1.3237667270004747 1.4426056034862993 3.7816710248589498 16.204900663346052 1.2593149654567231 3.6488616541028023 6.454541102051734 1.8767387419939039
leaf_count=20 44 29 24 24 30 29 23 20 24 37 37 22 153 21 24 19 22 15 28 503 56 23 21 25 63 296 26 63 118 30
internal_value=0 0.0816483 0.145182 0.199516 0.0206039 0.246451 0.192305 0.120634 0.279176 0.245691 -0.0269115 0.03219 -0.0877217 -0.0443975 -0.0566468 -0.0790506 -0.0787846 -0.0948256 -0.0950572 -0.0938851 -0.0940534 -0.0944664 -0.0941561 -0.0939639 -0.0940077 -0.0937378 -0.093501 -0.0941999 -0.0937526 -0.0943151
internal_weight=0 65.503 48.0843 33.4817 14.6026 28.8666 10.8743 6.9479 17.9923 13.2705 11.7263 3.925 63.2546 7.87806 7.80129 6.29006 6.16952 5.02227 4.67513 55.3765 4.61513 3.10268 3.80746 45.9532 38.0561 17.4187 9.4233 9.30727 7.89715 5.65841
internal_count=1869 768 452 242 210 162 72 49 90 61 180 59 1101 120 121 99 97 80 73 981 80 51 65 802 659 316 179 156 143 93
is_linear=0
shrinkage=0.1


Tree=27
num_leaves=31
num_cat=0
split_feature=7 10 10 7 10 3 7 7 3 10 13 10 11 8 11 10 5 9 10 10 7 10 10 7 8 10 6 13 10 10
split_gain=128.705 188.354 7.266 4.41232 13.0774 4.5006 4.33033 2.20799 2.67885 1.43463 3.25156 0.789343 1.02266 0.580248 0.350579 0.33178 0.0115262 0.00071867 0.000361318 0.000158134 0.000210907 7.20081e-05 7.06044e-05 6.49406e-05 5.79185e-05 5.56407e-05 8.56721e-05 8.20116e-05 5.17108e-05 5.50929e-05
threshold=4.5314080459770123 164.62323961112153 171.355343730649 4.410201149425288 177.77976177764489 4.6300000000000008 4.6914655172413804 4.7408333333333337 3.5900000000000003 185.3695100109569 171.50000000000003 158.98018317317067 0.7766451144573604 11767319.516929129 -4.880138016023845 185.3695100109569 37294.500000000007 1.0000000180025095e-35 166.5456498020055 117.99437476732167 4.3518678160919553 114.84926537189948 145.26075814852067 4.2520977011494256 10084336.978795929 177.00643329417736 2020.5000000000002 171.50000000000003 181.01568075460287 164.62323961112153
decision_type=2 2 2 2 2 2 2 2 2 2 2 2 2 2 2 2 2 2 2 2 2 2 2 2 2 2 2 2 2 2
left_child=3 11 6 17 18 -6 -3 8 -4 10 -10 22 -13 -11 -9 -16 -17 -1 21 -19 23 -5 -2 25 -23 27 -27 -21 29 -25
right_child=1 2 7 4 5 -7 -8 14 9 13 -12 12 -14 -15 15 16 -18 19 -20 20 -22 24 -24 28 -26 26 -28 -29 -30 -31
leaf_value=-0.096120130535637421 -0.096436017500007576 0.016678786927215888 0.12688419682455077 -0.096466174034651922 -0.0013527277366549371 0.16369510879685115 0.16868540532668094 0.19265921703187461 0.21939095718336291 0.23662356341949581 0.10769738886220499 -0.09787135237284518 3.0970271301495724e-05 0.19643108740640974 0.24355118587203203 0.21792185515202039 0.21198337916208065 -0.096389153353271084 -0.098173513339093993 -0.096433617799443511 -0.09773686147753323 -0.097411835102615613 -0.096813462172000125 -0.097054526398878141 -0.096784259643610523 -0.096911366878892902 -0.097361455834268418 -0.096974751830338185 -0.096993319713968629 -0.097808176050605544
leaf_weight=11.879414588212965 31.155848667025566 3.948476940393447 8.1392330676317197 5.3715769797563571 3.7961838245391837 2.9252760782837868 3.5673107877373695 4.8891006410121944 5.2925139963626879 6.0469496250152579 5.1353180259466171 2.2343971878290168 2.0420714989304543 8.8470924347639066 5.4408659487962749 5.4273244738578788 8.2164554297924024 4.3541682437062255 2.0553071275353423 5.2612193599343282 3.7731312215328208 1.9626915380358694 5.8933846503496161 1.7180823534727081 5.8649672791361809 28.084346383810043 4.9787724390625945 5.9885890707373619 4.8871596902608871 2.2275734841823578
leaf_count=152 385 24 36 66 27 19 21 20 21 23 23 24 22 34 21 20 30 54 22 65 41 22 70 20 70 330 56 70 57 24
internal_value=0 0.0750972 0.181288 -0.0850277 -0.0457344 0.0704785 0.0888276 0.193387 0.176791 0.192833 0.164386 -0.0918006 -0.0511217 0.212749 0.216551 0.222672 0.214346 -0.096832 -0.0969402 -0.09697 -0.0970144 -0.0967481 -0.0964961 -0.0969631 -0.0969416 -0.0969138 -0.0969791 -0.0967217 -0.0972107 -0.09748
internal_weight=0 106.276 64.9506 95.1285 21.976 6.72146 7.51579 57.4349 33.4611 25.3219 10.4278 41.3257 4.27647 14.894 23.9737 19.0846 13.6438 73.1525 15.2545 61.273 56.9189 13.1992 37.0492 53.1457 7.82766 44.3129 33.0631 11.2498 8.83282 3.94566
internal_count=1869 774 273 1095 226 46 45 228 137 101 44 501 46 57 91 71 50 869 180 717 663 158 455 622 92 521 386 135 101 44
is_linear=0
shrinkage=0.1


Tree=28
num_leaves=31
num_cat=0
split_feature=7 10 7 7 13 9 10 10 10 7 7 10 7 7 3 10 10 6 13 8 13 7 7 10 10 11 6 7 10 13
split_gain=385.388 0.515598 0.486511 0.0271159 0.00742698 0.00106204 0.000522249 0.000229148 0.000672346 0.000173847 0.000304345 0.000272406 0.000175764 0.000155931 0.00013137 0.000100108 5.03588e-05 7.73037e-05 7.40282e-05 4.95117e-05 4.47556e-05 4.44025e-05 5.908e-05 4.09956e-05 3.62166e-05 3.47762e-05 3.8175e-05 3.32674e-05 3.07836e-05 2.99167e-05
threshold=4.9934482758620691 123.40254303033596 4.8999712643678164 5.2112356321839091 171.50000000000003 1.0000000180025095e-35 131.17568626511405 117.99437476732167 114.84926537189948 4.5775574712643694 4.2520977011494256 164.62323961112153 4.3518678160919553 4.4168390804597708 3.3900000000000001 178.54635815410197 177.00643329417736 2020.5000000000002 171.50000000000003 18672444.670514759 172.50000000000003 4.5314080459770123 4.4620689655172425 177.22589634065642 149.1163206635172 -2.6496522790254162 2018.5000000000002 4.7124137931034493 192.21037385101903 172.50000000000003
decision_type=2 2 2 2 2 2 2 2 2 2 2 2 2 2 2 2 2 2 2 2 2 2 2 2 2 2 2 2 2 2
left_child=2 3 5 -2 -5 13 27 8 14 10 16 24 15 23 -6 -13 18 20 -8 -11 28 22 -14 -1 -12 -20 -27 -7 -18 -17
right_child=1 -3 -4 4 7 6 9 -9 -10 19 11 12 21 -15 -16 29 17 -19 25 -21 -22 -23 -24 -25 -26 26 -28 -29 -30 -31
leaf_value=-0.095462542482161905 0.22050919961555471 0.18354363894418163 -0.045916347343770231 0.21653201548798795 0.21329561590476095 -0.096168718843358314 -0.096183553917613407 0.21249572657461024 0.21405980270704716 -0.096455658981971615 -0.097054619491592997 -0.097606521881334674 -0.097545840111175369 -0.095079601128885027 0.21274246903722316 -0.096983007798194312 -0.096866048202811 -0.097077928987065951 -0.096319861133245172 -0.096901000570798548 -0.09650555535418795 -0.097240660405827239 -0.098171411055323288 -0.095966149097640174 -0.09656451712891323 -0.097148064204754941 -0.096540662816150091 -0.096624808731589684 -0.096560918396720263 -0.096498317401474965
leaf_weight=1.943664252758025 6.2229590415954581 6.0748930126428595 1.9277199134230603 6.8060029149055472 5.4689778387546601 22.382418058812622 5.1133286878466588 8.4859820008277875 5.7365069687366477 23.257027193903927 1.8846354931592957 1.8235222250223149 4.0799420177936536 3.0710263326764098 19.976658552885056 2.5728388205170631 9.7393818646669406 4.8403894379734984 1.671132333576679 2.7966376096010199 12.554887071251867 2.0234420523047447 2.3964314386248589 9.6007757261395437 7.5400438085198402 2.1828189864754677 1.9673021510243414 1.722315914928912 5.005730688571929 2.5215052217245102
leaf_count=27 23 23 21 25 20 285 65 31 21 287 22 20 45 45 73 30 115 56 21 33 154 23 25 125 92 25 24 21 61 31
internal_value=0 0.21113 -0.0957924 0.21431 0.21348 -0.096517 -0.0966166 0.212956 0.213082 -0.0967231 -0.0968073 -0.0970861 -0.097345 -0.0957129 0.212861 -0.0969707 -0.0966466 -0.0967096 -0.0964612 -0.0965035 -0.0966443 -0.0976496 -0.0977773 -0.0958814 -0.0966625 -0.096705 -0.0968601 -0.0962013 -0.0967625 -0.0967431
internal_weight=0 58.772 134.619 52.6971 46.4741 132.691 118.076 39.6681 31.1821 93.971 67.9173 24.8424 15.4177 14.6155 25.4456 6.91787 43.075 32.1404 10.9346 26.0537 27.3 8.49982 6.47637 11.5444 9.42468 5.82125 4.15012 24.1047 14.7451 5.09434
internal_count=1869 216 1653 193 170 1632 1435 145 114 1129 809 288 174 197 93 81 521 386 135 320 330 93 70 152 114 70 49 306 176 61
is_linear=0
shrinkage=0.1


Tree=29
num_leaves=31
num_cat=0
split_feature=9 7 10 7 13 3 10 10 7 7 7 10 7 10 10 6 13 10 8 7 11 13 7 7 10 11 6 10 3 10
split_gain=383.083 0.345348 0.0825938 0.0714365 0.00793757 0.00553481 0.00178302 0.000616469 0.000340766 0.0001657 0.000239234 0.000212699 0.000137661 7.85321e-05 3.94905e-05 6.06001e-05 5.81165e-05 3.56201e-05 4.27979e-05 3.99296e-05 3.56231e-05 3.49356e-05 3.44805e-05 4.61369e-05 2.91855e-05 2.72703e-05 2.95908e-05 2.44321e-05 2.48612e-05 2.40642e-05
threshold=1.0000000180025095e-35 4.4168390804597708 177.22589634065642 4.5201724137931043 172.50000000000003 4.2700000000000005 188.42228618778088 131.17568626511405 4.1879885057471276 4.5775574712643694 4.2520977011494256 164.62323961112153 4.3518678160919553 178.54635815410197 177.00643329417736 2020.5000000000002 171.50000000000003 179.86889353479995 17693646.890278276 4.680890804597702 -6.5401723653286821 172.50000000000003 4.5314080459770123 4.4620689655172425 149.1163206635172 -2.6496522790254162 2018.5000000000002 152.0048071552641 4.3500000000000005 192.21037385101903
decision_type=2 2 2 2 2 2 2 2 2 2 2 2 2 2 2 2 2 2 2 2 2 2 2 2 2 2 2 2 2 2
left_child=1 2 -1 -3 5 -4 -6 -2 -8 10 14 24 13 -13 16 21 -9 18 27 -19 -21 29 23 -14 -12 -18 -27 -11 -29 -16
right_child=7 3 4 -5 6 -7 8 9 -10 17 11 12 22 -15 15 -17 25 19 -20 20 -22 -23 -24 -25 -26 26 -28 28 -30 -31
leaf_value=0.22860995708361284 -0.095618137615156806 0.23115610641347473 0.21688510630435498 0.24660395505037172 0.21673887081231402 0.22115450728220637 0.21445257189331432 -0.095614526476248352 0.21550377508284135 -0.095631414969924652 -0.096419142779693212 -0.096918852074827894 -0.096862736558533877 -0.096127575202002324 -0.096239910897997535 -0.096434409255370557 -0.09573970549222878 -0.096056049413350872 -0.096452414979635692 -0.096052218896900313 -0.095540815097106047 -0.095910189282664871 -0.096585114130166572 -0.097434619679460432 -0.095963933655692571 -0.096497281786198999 -0.095943820027522941 -0.095840430916195735 -0.096149010257787937 -0.095960672152125503
leaf_weight=7.2126372158527365 37.891194522380829 6.6526346504688245 6.5293330252170545 5.4425656795501709 9.2530278861522692 5.6761829257011414 7.0986178517341596 4.7707380875945073 5.4524066746234894 2.2746408358216312 1.7608851045370117 1.703598290681837 3.811214804649353 4.7554605752229691 9.0921263322234207 4.5197400376200667 1.5593777671456335 3.2516380846500388 1.7762856855988491 1.7055609598755825 6.7635430730879298 11.717646308243273 1.8900446370244024 2.2397118359804153 7.0373745262622833 2.0380381122231488 1.8364886492490766 5.2778572440147382 5.1668803542852402 4.6719966307282439
leaf_count=27 516 25 24 21 34 21 26 65 20 31 22 20 45 61 115 56 21 42 22 22 93 154 23 25 92 25 24 70 66 61
internal_value=0 0.22325 0.21889 0.238107 0.216829 0.218871 0.215686 -0.0959563 0.214909 -0.0960993 -0.0961867 -0.0964424 -0.0966791 -0.0963363 -0.0960391 -0.0960969 -0.0958692 -0.0958878 -0.0959926 -0.0957582 -0.0956438 -0.0960371 -0.096958 -0.0970744 -0.096055 -0.0960928 -0.0962349 -0.0959284 -0.0959931 -0.0961451
internal_weight=0 53.3174 41.2222 12.0952 34.0096 12.2055 21.8041 127.512 12.551 89.6208 63.4044 23.1983 14.4 6.45906 40.2062 30.0015 10.2046 26.2164 14.4957 11.7207 8.4691 25.4818 7.94097 6.05093 8.79826 5.4339 3.87453 12.7194 10.4447 13.7641
internal_count=1869 198 152 46 125 45 80 1671 46 1155 809 288 174 81 521 386 135 346 189 157 115 330 93 70 114 70 49 167 136 176
is_linear=0
shrinkage=0.1


Tree=30
num_leaves=31
num_cat=0
split_feature=10 10 7 10 8 3 11 7 10 13 10 11 11 11 8 8 3 10 5 10 9 7 13 6 10 7 11 13 10 7
split_gain=82.195 143.282 55.5708 14.1525 7.77931 5.8951 4.6835 4.50203 8.66485 5.02767 2.71755 2.23417 1.96438 3.6883 4.29702 1.65069 0.896799 0.836594 0.458864 0.25278 0.000895884 0.00046929 8.58842e-05 0.000110816 7.25089e-05 5.68147e-05 5.15284e-05 4.80372e-05 4.58935e-05 3.53418e-05
threshold=175.58886538327675 141.40949968669747 4.2424137931034496 165.00187963228265 14750612.186499389 4.1700000000000008 -1.2798003803132454 4.5414080459770121 185.3695100109569 171.50000000000003 170.04809025791857 13.371822283898387 0.81984049258907399 -4.2235890291220892 12443796.681435732 14004902.985072704 4.9900000000000011 163.07686364669024 79984.500000000015 156.99149020222191 1.0000000180025095e-35 4.3518678160919553 173.50000000000003 2020.5000000000002 131.17568626511405 4.3952298850574723 -2.6496522790254162 171.50000000000003 187.90672397637562 4.680890804597702
decision_type=2 2 2 2 2 2 2 2 2 2 2 2 2 2 2 2 2 2 2 2 2 2 2 2 2 2 2 2 2 2
left_child=1 24 17 11 5 -5 -6 20 9 -9 -7 12 13 15 -15 18 19 -3 -4 -14 25 22 23 -22 -1 -2 -19 -28 -24 -10
right_child=7 2 3 4 6 10 -8 8 29 -11 -12 -13 16 14 -16 -17 -18 26 -20 -21 21 -23 28 -25 -26 -27 27 -29 -30 -31
leaf_value=-0.096437813378552367 -0.09619685074226357 -0.035919195677686581 0.15997016353582016 0.20563329640366348 0.073344936230597235 0.13177007283276984 -0.10370115240300999 -0.04452929077881624 -0.096877529103293031 0.11818428145846478 0.016079156498605442 0.12535614285379879 0.22072004034646922 0.19348288229010821 0.064634705240597362 0.2409236788476008 0.18416153316979633 -0.096460825198880551 0.20092390110784053 0.24899273404939254 -0.096964726064370968 -0.098058171463159705 -0.09630854882252976 -0.097466887197533436 -0.097003918502091113 -0.095580017813894746 -0.096604974890535489 -0.09721835098859874 -0.096850606457560495 -0.096497112312129221
leaf_weight=41.787132896482944 10.023260794579981 3.1149428784847251 5.7601111680269259 5.7438242584466961 3.2490332797169685 4.0150882527232152 2.7663524895906439 3.5793075934052494 3.6228957027196866 4.0450461953878403 4.1075248792767525 5.4299117624759665 7.1837047189474124 5.1830456256866473 5.1700799763202667 7.2466543540358535 5.26721367239952 2.5958616435527793 5.2108938544988632 5.6491637676954269 28.23593232780695 4.4639364480972281 2.4727696999907485 5.2045770511031142 2.3920619562268248 1.7546233534812916 1.9813106730580319 3.5907924771308899 4.2403336837887764 7.4930948540568352
leaf_count=516 127 28 24 27 21 21 23 33 43 30 30 23 28 21 22 32 21 32 20 22 330 47 31 58 28 24 24 41 50 92
internal_value=0 0.0490973 0.126332 0.158675 0.0868965 0.128096 -0.00807493 -0.08277 -0.0403067 0.0417972 0.0732663 0.186066 0.19313 0.1768 0.129139 0.203886 0.218905 -0.0800131 0.179422 0.233166 -0.0968807 -0.0970855 -0.0969774 -0.0970429 -0.0964685 -0.096105 -0.0968288 -0.0970002 -0.0966509 -0.0966211
internal_weight=0 127.445 83.2655 71.9826 19.8818 13.8664 6.01539 75.1358 18.7403 7.62435 8.12261 52.1008 46.6709 28.5708 10.3531 18.2177 18.1001 11.2829 10.971 12.8329 56.3954 44.6175 40.1536 33.4405 44.1792 11.7779 8.16796 5.5721 6.7131 11.116
internal_count=1869 1004 460 335 122 78 44 865 198 63 51 213 190 119 43 76 71 125 44 50 667 516 469 388 544 151 97 65 81 135
is_linear=0
shrinkage=0.1


Tree=31
num_leaves=31
num_cat=0
split_feature=7 10 9 13 10 7 10 10 13 13 10 5 8 13 10 10 3 3 5 7 13 10 7 11 3 13 7 5 11 9
split_gain=102.208 83.6903 25.1315 8.38686 9.51325 7.30304 6.05127 5.50848 5.47281 5.11814 4.68441 4.52215 4.25538 3.64463 3.8346 2.73334 1.56818 1.896 2.52699 1.84227 1.58668 1.20394 1.5374 1.97895 1.00337 0.823974 1.15476 0.570826 0.241181 0.00041191
threshold=4.3300574712643689 183.78945757592996 1.0000000180025095e-35 173.50000000000003 157.0792745258066 4.477241379310346 155.01867274723674 177.35097425827982 171.50000000000003 170.50000000000003 176.93963298593641 81736.000000000015 12213073.144219464 170.50000000000003 191.58875081231707 192.04076016255527 4.1500000000000012 4.7500000000000009 59948.500000000007 4.094396551724139 171.50000000000003 193.67903543331826 3.9481609195402299 -9.1351314177444269 4.3900000000000015 168.50000000000003 4.6383045977011506 132444.50000000003 4.2888299311081877 1.0000000180025095e-35
decision_type=2 2 2 2 2 2 2 2 2 2 2 2 2 2 2 2 2 2 2 2 2 2 2 2 2 2 2 2 2 2
left_child=1 2 -1 4 -4 6 -2 16 13 -8 24 12 -9 15 -15 -3 20 19 -19 -18 -6 22 -10 -24 -11 26 -7 29 -25 -27
right_child=5 8 3 -5 7 25 9 11 21 10 -12 -13 -14 14 -16 -17 17 18 -20 -21 -22 -23 23 28 -26 27 -28 -29 -30 -31
leaf_value=-0.098719003180248677 -0.096085168547653518 -0.10157795549979964 0.021291435204434921 0.038367269486616895 0.21518840347189649 0.010411578577506971 0.10608092362192467 0.17537906512450843 0.017283588688862664 0.084637862346945258 -0.096649546433410172 0.20999240952964371 0.028235560605692558 0.15342350147052355 -0.0072234825331443583 0.043199131549946618 0.20335400351852473 0.14095487858884209 0.23409638244341691 0.28329072466702504 0.14357219838660409 -0.096437462302408822 0.0064298631668043369 -0.096792176034550273 -0.0071760529822615278 -0.094642043849958876 -0.096379275920861443 -0.036413261125484597 -0.062986463460803097 -0.096083894918812252
leaf_weight=4.0229192823171607 7.6805141717195538 3.4295356944203359 3.8897478207945815 5.1773814707994452 5.5533219724893552 1.8437075540423382 4.241314470767974 3.1686273142695409 2.5991459414362934 2.6563934087753278 4.7276553735136986 4.3368722498416892 5.1759229972958565 2.7315553426742554 3.2581318691372871 2.1041272208094597 5.2024315297603625 5.4546904116868955 6.2508118599653244 6.4670009613037109 6.9845154583454132 10.710177525877951 2.8855550512671444 7.4309112727642059 2.1565801724791527 2.0478282347321501 2.2461563944816589 1.6476375237107266 2.9474800080060959 61.034546054899693
leaf_count=41 99 30 32 32 21 20 29 20 28 20 58 25 36 22 32 21 20 23 26 27 31 133 32 89 20 32 28 19 35 788
internal_value=0 0.0709615 0.142935 0.159794 0.171773 -0.075886 -0.0249566 0.183818 -0.0455739 0.0146824 -0.025949 0.12716 0.0841095 0.0119827 0.0660385 -0.0465277 0.203825 0.219129 0.190693 0.247654 0.175293 -0.070533 -0.0530432 -0.0668241 0.0434982 -0.091769 -0.048238 -0.0945194 -0.0871913 -0.0960371
internal_weight=0 99.7809 61.6842 57.6613 52.4839 90.2823 21.4625 48.5942 38.0966 13.7819 9.54063 12.6814 8.34455 11.5234 5.98969 5.53366 35.9128 23.3749 11.7055 11.6694 12.5378 26.5733 15.8631 13.2639 4.81297 68.8199 4.08986 64.73 10.3784 63.0824
internal_count=1869 756 334 293 261 1113 226 229 422 127 98 81 56 105 54 51 148 96 49 47 52 317 184 156 40 887 48 839 124 820
is_linear=0
shrinkage=0.1


Tree=32
num_leaves=31
num_cat=0
split_feature=7 9 10 13 10 13 8 7 7 7 8 8 7 8 8 8 8 11 5 11 11 10 5 10 7 10 4 5 3 8
split_gain=114.229 35.8764 39.3061 18.2846 7.40703 5.49082 5.20753 4.32895 3.45679 4.71459 3.02591 4.72343 2.84077 3.18938 2.83107 6.65509 5.3739 5.94844 3.18997 5.12586 5.42519 2.46202 1.99998 1.95217 1.87271 3.99991 0.739911 0.42933 0.331714 0.139374
